{"learner":{"attributes":{"best_iteration":"42","best_msg":"[43]\ttrain-auc:0.892430\ttest-auc:0.761109","best_ntreelimit":"43","best_score":"0.761109383368752","niter":"67"},"feature_names":[],"feature_types":[],"gradient_booster":{"model":{"gbtree_model_param":{"num_parallel_tree":"1","num_trees":"68","size_leaf_vector":"0"},"tree_info":[0,0,0,0,0,0,0,0,0,0,0,0,0,0,0,0,0,0,0,0,0,0,0,0,0,0,0,0,0,0,0,0,0,0,0,0,0,0,0,0,0,0,0,0,0,0,0,0,0,0,0,0,0,0,0,0,0,0,0,0,0,0,0,0,0,0,0,0],"trees":[{"base_weights":[-1.8771309E-3,-2.232296E-1,5.0731115E0,-3.685842E-1,2.1716714E0,1.7427825E0,6.7575693E0,-4.019967E-1,2.7087967E0,1.2732817E0,4.4512706E0,1.2718429E-1,3.987061E0,7.5901456E0,4.5615357E-1,-4.42627E-1,1.2953722E0,4.0144725E0,-2.2363996E-2,5.833307E-1,4.2949104E0,5.449752E0,1.1442074E0,-6.725453E-1,1.08079E0,2.048115E0,9.182609E0],"categories":[],"categories_nodes":[],"categories_segments":[],"categories_sizes":[],"default_left":[1,1,1,1,1,1,1,1,1,1,1,1,0,1,0,0,0,0,0,0,0,0,0,0,0,0,0],"id":0,"left_children":[1,3,5,7,9,11,13,15,17,19,21,23,-1,25,-1,-1,-1,-1,-1,-1,-1,-1,-1,-1,-1,-1,-1],"loss_changes":[3.5819568E2,1.0715714E2,6.2980896E1,3.0794353E1,3.043274E1,2.060919E1,4.1145325E1,2.034322E1,1.16159725E1,2.6775278E1,8.895851E0,4.097031E0,0E0,4.690982E1,0E0,0E0,0E0,0E0,0E0,0E0,0E0,0E0,0E0,0E0,0E0,0E0,0E0],"parents":[2147483647,0,0,1,1,2,2,3,3,4,4,5,5,6,6,7,7,8,8,9,9,10,10,11,11,13,13],"right_children":[2,4,6,8,10,12,14,16,18,20,22,24,-1,26,-1,-1,-1,-1,-1,-1,-1,-1,-1,-1,-1,-1,-1],"split_conditions":[-9.536743E-7,-9.536743E-7,-9.536743E-7,-9.536743E-7,-9.536743E-7,-9.536743E-7,-9.536743E-7,-9.536743E-7,-9.536743E-7,1.8774703E-2,4.961832E-2,-9.536743E-7,3.987061E-1,-9.536743E-7,4.5615356E-2,-4.4262704E-2,1.2953722E-1,4.0144727E-1,-2.2363996E-3,5.833307E-2,4.2949104E-1,5.449752E-1,1.14420734E-1,-6.7254536E-2,1.0807901E-1,2.048115E-1,9.182609E-1],"split_indices":[2352,2386,26125,15,6812,12224,12936,1302,25510,42,5671,17845,0,5492,0,0,0,0,0,0,0,0,0,0,0,0,0],"split_type":[0,0,0,0,0,0,0,0,0,0,0,0,0,0,0,0,0,0,0,0,0,0,0,0,0,0,0],"sum_hessian":[3.168525E2,3.045262E2,1.2326307E1,2.8789877E2,1.6627447E1,4.823811E0,7.5024962E0,2.8566653E2,2.2322376E0,1.3044979E1,3.5824692E0,3.4191346E0,1.4046763E0,6.4462667E0,1.0562295E0,2.7971027E2,5.956263E0,1.1923416E0,1.039896E0,1.1591302E1,1.4536767E0,2.2540154E0,1.3284535E0,2.0199027E0,1.3992319E0,1.9491246E0,4.4971423E0],"tree_param":{"num_deleted":"0","num_feature":"31654","num_nodes":"27","size_leaf_vector":"0"}},{"base_weights":[-3.3662524E-3,-4.128018E-1,1.5161688E0,-4.4690073E-1,2.0944011E0,9.034628E-1,3.6397002E0,-4.8366246E-1,1.0078954E0,-5.56702E-1,3.7589607E0,5.465337E-1,2.907542E0,1.5397378E0,4.916214E0,-3.9574155E-1,-7.722437E-1,-6.1102374E-3,2.6689425E0,2.8243234E0,2.3995118E-1,2.7169666E-1,4.3897023E0,3.050417E0,-9.079092E-2,6.649137E0,1.847687E0],"categories":[],"categories_nodes":[],"categories_segments":[],"categories_sizes":[],"default_left":[1,1,1,1,1,1,1,1,1,0,0,1,1,1,1,0,0,0,0,0,0,0,0,0,0,0,0],"id":1,"left_children":[1,3,5,7,9,11,13,15,17,-1,-1,19,21,23,25,-1,-1,-1,-1,-1,-1,-1,-1,-1,-1,-1,-1],"loss_changes":[1.9862617E2,2.2436283E1,8.4880264E1,1.3800781E1,1.7759682E1,3.698123E1,3.2221252E1,5.8719482E0,1.0896408E1,0E0,0E0,3.2144325E1,2.9749046E1,1.7686657E1,3.438083E1,0E0,0E0,0E0,0E0,0E0,0E0,0E0,0E0,0E0,0E0,0E0,0E0],"parents":[2147483647,0,0,1,1,2,2,3,3,4,4,5,5,6,6,7,7,8,8,11,11,12,12,13,13,14,14],"right_children":[2,4,6,8,10,12,14,16,18,-1,-1,20,22,24,26,-1,-1,-1,-1,-1,-1,-1,-1,-1,-1,-1,-1],"split_conditions":[-9.536743E-7,-9.536743E-7,-9.536743E-7,-9.536743E-7,-9.536743E-7,2.8481014E-2,-9.536743E-7,-9.536743E-7,-9.536743E-7,-5.56702E-2,3.7589607E-1,6.3613234E-3,-9.536743E-7,-9.536743E-7,-9.536743E-7,-3.9574157E-2,-7.722437E-2,-6.1102374E-4,2.6689425E-1,2.8243235E-1,2.3995118E-2,2.7169665E-2,4.3897024E-1,3.050417E-1,-9.079092E-3,6.649137E-1,1.847687E-1],"split_indices":[2480,12853,23855,31568,18,30,19769,26306,23355,0,0,5671,26146,26473,18213,0,0,0,0,0,0,0,0,0,0,0,0],"split_type":[0,0,0,0,0,0,0,0,0,0,0,0,0,0,0,0,0,0,0,0,0,0,0,0,0,0,0],"sum_hessian":[3.1725085E2,2.5048619E2,6.676465E1,2.4793593E2,2.5502713E0,5.292078E1,1.3843866E1,2.4247626E2,5.459674E0,1.240351E0,1.3099204E0,4.6000706E1,6.920076E0,6.0679064E0,7.77596E0,1.8767068E2,5.480556E1,4.0087852E0,1.4508885E0,4.4828186E0,4.1517887E1,2.9165864E0,4.003489E0,2.697691E0,3.3702157E0,4.223752E0,3.5522082E0],"tree_param":{"num_deleted":"0","num_feature":"31654","num_nodes":"27","size_leaf_vector":"0"}},{"base_weights":[-3.2293124E-3,-3.873341E-1,1.1865014E0,-4.2133474E-1,1.696105E0,1.0111613E0,5.0311136E0,-4.5816702E-1,8.8036686E-1,-3.4670886E-1,3.9168155E0,6.7427665E-1,2.859301E0,-4.722876E-1,1.12225E0,-5.624286E-3,2.1111834E0,-3.60148E-3,-5.1324815E-1,4.9240094E-1,4.2100716E0,3.5226142E0,-3.1467786E-1],"categories":[],"categories_nodes":[],"categories_segments":[],"categories_sizes":[],"default_left":[1,1,1,1,1,1,0,1,1,1,0,1,1,0,0,0,0,0,0,0,0,0,0],"id":2,"left_children":[1,3,5,7,9,11,-1,13,15,17,-1,19,21,-1,-1,-1,-1,-1,-1,-1,-1,-1,-1],"loss_changes":[1.458146E2,1.7800941E1,4.7409256E1,1.1820396E1,1.9830906E1,4.522204E1,0E0,5.712673E0,7.5306845E0,1.7184064E-1,0E0,3.9959824E1,2.504058E1,0E0,0E0,0E0,0E0,0E0,0E0,0E0,0E0,0E0,0E0],"parents":[2147483647,0,0,1,1,2,2,3,3,4,4,5,5,7,7,8,8,9,9,11,11,12,12],"right_children":[2,4,6,8,10,12,-1,14,16,18,-1,20,22,-1,-1,-1,-1,-1,-1,-1,-1,-1,-1],"split_conditions":[-9.536743E-7,-9.536743E-7,-9.536743E-7,-9.536743E-7,1.5957447E-2,-9.536743E-7,5.0311136E-1,-9.536743E-7,-9.536743E-7,-9.536743E-7,3.9168155E-1,-9.536743E-7,-9.536743E-7,-4.722876E-2,1.12224996E-1,-5.624286E-4,2.1111834E-1,-3.60148E-4,-5.1324815E-2,4.9240094E-2,4.2100716E-1,3.5226142E-1,-3.1467788E-2],"split_indices":[2480,12853,11190,31568,28,6812,0,7029,23355,12858,0,13595,12447,0,0,0,0,0,0,0,0,0,0],"split_type":[0,0,0,0,0,0,0,0,0,0,0,0,0,0,0,0,0,0,0,0,0,0,0],"sum_hessian":[3.1707657E2,2.402018E2,7.6874756E1,2.3712973E2,3.0720637E0,7.47296E1,2.145163E0,2.3123486E2,5.894876E0,2.0396662E0,1.0323976E0,6.436228E1,1.0367316E1,2.2988208E2,1.3527696E0,4.0063643E0,1.8885118E0,1.0003506E0,1.0393156E0,6.2297077E1,2.0652025E0,8.48437E0,1.8829458E0],"tree_param":{"num_deleted":"0","num_feature":"31654","num_nodes":"23","size_leaf_vector":"0"}},{"base_weights":[-1.8089581E-3,-3.61899E-1,9.602223E-1,-3.9578855E-1,1.4350561E0,1.2875395E-1,1.4759682E0,-4.1495007E-1,1.908121E0,-3.612437E-1,3.1599538E0,-1.7862123E-1,2.5376225E0,1.1486185E0,3.56101E0,-4.3336606E-1,1.4674466E0,-4.8020585E-3,-5.287314E-1,-4.082954E-1,2.865704E0,3.9712722E0,1.7508967E-1,7.875115E-1,2.5737174E0,3.476821E-1,4.785382E0],"categories":[],"categories_nodes":[],"categories_segments":[],"categories_sizes":[],"default_left":[1,1,1,1,1,1,1,1,0,1,0,1,0,1,1,0,0,0,0,0,0,0,0,0,0,0,0],"id":3,"left_children":[1,3,5,7,9,11,13,15,-1,17,-1,19,21,23,25,-1,-1,-1,-1,-1,-1,-1,-1,-1,-1,-1,-1],"loss_changes":[1.1032206E2,1.4679586E1,3.700508E1,1.0866852E1,1.5101478E1,2.585032E1,3.2382133E1,8.510666E0,0E0,1.8279675E-1,0E0,2.3092367E1,1.2674274E1,2.2500404E1,2.4990875E1,0E0,0E0,0E0,0E0,0E0,0E0,0E0,0E0,0E0,0E0,0E0,0E0],"parents":[2147483647,0,0,1,1,2,2,3,3,4,4,5,5,6,6,7,7,9,9,11,11,12,12,13,13,14,14],"right_children":[2,4,6,8,10,12,14,16,-1,18,-1,20,22,24,26,-1,-1,-1,-1,-1,-1,-1,-1,-1,-1,-1,-1],"split_conditions":[-9.536743E-7,-9.536743E-7,-9.536743E-7,-9.536743E-7,-9.536743E-7,-9.536743E-7,-9.536743E-7,-9.536743E-7,1.908121E-1,-9.536743E-7,3.159954E-1,-9.536743E-7,4.7073793E-2,-9.536743E-7,-9.536743E-7,-4.3336608E-2,1.4674465E-1,-4.8020584E-4,-5.2873142E-2,-4.082954E-2,2.865704E-1,3.9712724E-1,1.7508967E-2,7.8751154E-2,2.5737175E-1,3.476821E-2,4.785382E-1],"split_indices":[2480,12853,26146,3054,26163,2463,11591,12555,0,26550,0,15,5671,2128,26281,0,0,0,0,0,0,0,0,0,0,0,0],"split_type":[0,0,0,0,0,0,0,0,0,0,0,0,0,0,0,0,0,0,0,0,0,0,0,0,0,0,0],"sum_hessian":[3.1646213E2,2.3072513E2,8.573701E1,2.2721964E2,3.505491E0,3.3300575E1,5.2436436E1,2.2615858E2,1.0610585E0,2.1044738E0,1.4010172E0,3.0353296E1,2.947277E0,4.6661503E1,5.77493E0,2.2472977E2,1.4288124E0,1.0015916E0,1.1028823E0,2.9029125E1,1.3241718E0,1.410443E0,1.5368341E0,3.8466938E1,8.194568E0,1.9475669E0,3.827363E0],"tree_param":{"num_deleted":"0","num_feature":"31654","num_nodes":"27","size_leaf_vector":"0"}},{"base_weights":[4.028494E-4,-3.3712235E-1,7.9866976E-1,-3.8114023E-1,9.485666E-1,1.5759609E0,4.477817E-1,-4.0838128E-1,9.940185E-1,1.390423E-2,2.5810218E0,8.460588E-1,2.8667397E0,2.9561314E-1,3.357827E0,-3.135533E-1,-7.3130065E-1,-3.302637E-1,2.150981E0,1.791901E0,-7.9426074E-1,4.1973713E-1,3.3591204E0,1.6109614E0,4.8205194E0,9.9116884E-2,1.4341186E0,4.448756E0,8.18525E-1],"categories":[],"categories_nodes":[],"categories_segments":[],"categories_sizes":[],"default_left":[1,1,1,1,1,1,1,1,1,1,0,1,1,1,1,0,0,0,0,0,0,0,0,0,0,0,0,0,0],"id":4,"left_children":[1,3,5,7,9,11,13,15,17,19,-1,21,23,25,27,-1,-1,-1,-1,-1,-1,-1,-1,-1,-1,-1,-1,-1,-1],"loss_changes":[8.555689E1,1.2991932E1,2.5031414E1,8.516327E0,1.1673983E1,2.4851845E1,2.8415691E1,6.29335E0,7.5999784E0,9.880589E0,0E0,1.992433E1,1.6866058E1,1.4222002E1,5.2332573E0,0E0,0E0,0E0,0E0,0E0,0E0,0E0,0E0,0E0,0E0,0E0,0E0,0E0,0E0],"parents":[2147483647,0,0,1,1,2,2,3,3,4,4,5,5,6,6,7,7,8,8,9,9,11,11,12,12,13,13,14,14],"right_children":[2,4,6,8,10,12,14,16,18,20,-1,22,24,26,28,-1,-1,-1,-1,-1,-1,-1,-1,-1,-1,-1,-1,-1,-1],"split_conditions":[-9.536743E-7,-9.536743E-7,-9.536743E-7,-9.536743E-7,1.9190142E-1,-9.536743E-7,-9.536743E-7,-9.536743E-7,1.5957447E-2,-9.536743E-7,2.5810218E-1,-9.536743E-7,-9.536743E-7,-9.536743E-7,-9.536743E-7,-3.1355333E-2,-7.313006E-2,-3.302637E-2,2.150981E-1,1.791901E-1,-7.942607E-2,4.1973714E-2,3.3591205E-1,1.6109614E-1,4.8205194E-1,9.911689E-3,1.4341186E-1,4.4487563E-1,8.18525E-2],"split_indices":[2480,31568,11330,12853,5669,23892,3917,26306,28,26042,0,29786,24808,11591,26059,0,0,0,0,0,0,0,0,0,0,0,0,0,0],"split_type":[0,0,0,0,0,0,0,0,0,0,0,0,0,0,0,0,0,0,0,0,0,0,0,0,0,0,0,0,0],"sum_hessian":[3.1554233E2,2.2217812E2,9.336422E1,2.1550351E2,6.6746035E0,2.79524E1,6.541182E1,2.1200682E2,3.496695E0,4.8857718E0,1.7888316E0,1.8913034E1,9.039367E0,6.3208195E1,2.2036233E0,1.6540518E2,4.6601635E1,1.9636288E0,1.5330663E0,1.1463991E0,3.7393725E0,1.716769E1,1.7453446E0,6.6132693E0,2.4260974E0,5.4831764E1,8.376431E0,1.0154201E0,1.1882031E0],"tree_param":{"num_deleted":"0","num_feature":"31654","num_nodes":"29","size_leaf_vector":"0"}},{"base_weights":[3.7882742E-3,-3.1358522E-1,6.8365407E-1,-4.3163845E-1,1.5935954E-1,7.130664E-2,1.0101619E0,-4.5858696E-1,1.0205342E0,1.2230171E0,-1.6378814E-1,-1.9847827E-1,1.7950947E0,6.282333E-1,1.7940099E0,-4.8180506E-1,9.981537E-1,-5.256525E-1,1.9616985E0,2.2302838E-1,3.4017372E0,-2.9814047E-1,1.3856066E0,-4.1153467E-1,2.0749145E0,2.7768877E0,-2.2737846E-1,-3.098359E-1,9.664491E-1,2.5540783E0,4.5377794E-1],"categories":[],"categories_nodes":[],"categories_segments":[],"categories_sizes":[],"default_left":[1,1,1,1,0,1,1,1,0,1,1,1,1,1,1,0,0,0,0,0,0,0,0,0,0,0,0,0,0,0,0],"id":5,"left_children":[1,3,5,7,9,11,13,15,17,19,21,23,25,27,29,-1,-1,-1,-1,-1,-1,-1,-1,-1,-1,-1,-1,-1,-1,-1,-1],"loss_changes":[6.823736E1,1.2106857E1,2.0050545E1,7.230774E0,1.5254817E1,1.7134192E1,1.8502136E1,6.2426987E0,6.064084E0,2.1734064E1,7.5895815E0,1.6399775E1,1.0523571E1,1.4774984E1,2.017411E1,0E0,0E0,0E0,0E0,0E0,0E0,0E0,0E0,0E0,0E0,0E0,0E0,0E0,0E0,0E0,0E0],"parents":[2147483647,0,0,1,1,2,2,3,3,4,4,5,5,6,6,7,7,8,8,9,9,10,10,11,11,12,12,13,13,14,14],"right_children":[2,4,6,8,10,12,14,16,18,20,22,24,26,28,30,-1,-1,-1,-1,-1,-1,-1,-1,-1,-1,-1,-1,-1,-1,-1,-1],"split_conditions":[-9.536743E-7,-9.536743E-7,-9.536743E-7,-9.536743E-7,2.6595745E-2,-9.536743E-7,-9.536743E-7,-9.536743E-7,1.02459015E-2,-9.536743E-7,-9.536743E-7,-9.536743E-7,1.5957447E-2,-9.536743E-7,-9.536743E-7,-4.8180506E-2,9.981537E-2,-5.2565254E-2,1.9616985E-1,2.2302838E-2,3.4017372E-1,-2.9814048E-2,1.3856067E-1,-4.115347E-2,2.0749144E-1,2.7768877E-1,-2.2737846E-2,-3.0983591E-2,9.664491E-2,2.5540784E-1,4.5377795E-2],"split_indices":[2480,2064,26146,6290,28,2463,26403,28511,25,19641,1302,15,28,18258,25999,0,0,0,0,0,0,0,0,0,0,0,0,0,0,0,0],"split_type":[0,0,0,0,0,0,0,0,0,0,0,0,0,0,0,0,0,0,0,0,0,0,0,0,0,0,0,0,0,0,0],"sum_hessian":[3.1425482E2,2.1460986E2,9.9644966E1,1.7181094E2,4.2798927E1,3.5077477E1,6.456749E1,1.693524E2,2.4585333E0,9.323953E0,3.3474976E1,3.109565E1,3.9818277E0,4.4625343E1,1.9942144E1,1.6735431E2,1.9980977E0,1.0973103E0,1.361223E0,7.1463075E0,2.1776447E0,3.1547024E1,1.9279534E0,2.9179958E1,1.9156913E0,2.4294536E0,1.5523741E0,1.1847961E1,3.277738E1,1.214743E1,7.794714E0],"tree_param":{"num_deleted":"0","num_feature":"31654","num_nodes":"31","size_leaf_vector":"0"}},{"base_weights":[4.400829E-3,-2.9039145E-1,5.784056E-1,-4.059608E-1,1.4887854E-1,4.407861E-1,1.6955286E0,-4.32902E-1,8.908393E-1,1.9709509E-2,2.5394406E0,2.6540577E-1,1.4453776E0,3.7171438E0,6.046079E-1,-4.5295018E-1,1.1374435E0,-2.5430122E-1,1.9619488E0,-2.5499114E-1,1.0447687E0,8.69285E-2,1.1715261E0,2.0161114E0,-3.247887E-1,8.8553786E-1,4.5588255E0,-7.056274E-2,2.5611188E0],"categories":[],"categories_nodes":[],"categories_segments":[],"categories_sizes":[],"default_left":[1,1,1,1,1,1,1,1,0,1,0,1,1,1,1,0,0,0,0,0,0,0,0,0,0,0,0,0,0],"id":6,"left_children":[1,3,5,7,9,11,13,15,17,19,-1,21,23,25,27,-1,-1,-1,-1,-1,-1,-1,-1,-1,-1,-1,-1,-1,-1],"loss_changes":[5.3433235E1,1.065229E1,1.5724709E1,6.1660347E0,1.3595231E1,1.6661224E1,2.2894806E1,5.6391754E0,5.0302744E0,1.23555355E1,0E0,1.3416407E1,1.4954687E1,5.0229797E0,1.1539493E1,0E0,0E0,0E0,0E0,0E0,0E0,0E0,0E0,0E0,0E0,0E0,0E0,0E0,0E0],"parents":[2147483647,0,0,1,1,2,2,3,3,4,4,5,5,6,6,7,7,8,8,9,9,11,11,12,12,13,13,14,14],"right_children":[2,4,6,8,10,12,14,16,18,20,-1,22,24,26,28,-1,-1,-1,-1,-1,-1,-1,-1,-1,-1,-1,-1,-1,-1],"split_conditions":[-9.536743E-7,-9.536743E-7,-9.536743E-7,-9.536743E-7,-9.536743E-7,3.0632412E-2,-9.536743E-7,-9.536743E-7,8.116883E-2,-9.536743E-7,2.5394407E-1,-9.536743E-7,-9.536743E-7,-9.536743E-7,-9.536743E-7,-4.529502E-2,1.13744356E-1,-2.5430122E-2,1.9619487E-1,-2.5499115E-2,1.0447687E-1,8.69285E-3,1.1715261E-1,2.0161115E-1,-3.247887E-2,8.855379E-2,4.5588255E-1,-7.0562745E-3,2.561119E-1],"split_indices":[2480,2064,2315,6290,4169,42,26185,28585,31,11666,0,6812,22606,12878,1843,0,0,0,0,0,0,0,0,0,0,0,0,0,0],"split_type":[0,0,0,0,0,0,0,0,0,0,0,0,0,0,0,0,0,0,0,0,0,0,0,0,0,0,0,0,0],"sum_hessian":[3.137839E2,2.0764006E2,1.0614384E2,1.6445006E2,4.319001E1,9.574365E1,1.0400187E1,1.6175572E2,2.6943228E0,4.1932518E1,1.2574915E0,8.258948E1,1.3154176E1,2.8014317E0,7.5987554E0,1.6041927E2,1.3364702E0,1.6707155E0,1.0236075E0,3.3662666E1,8.269852E0,6.991446E1,1.2675018E1,9.841997E0,3.3121784E0,1.112119E0,1.6893127E0,6.3658905E0,1.2328649E0],"tree_param":{"num_deleted":"0","num_feature":"31654","num_nodes":"29","size_leaf_vector":"0"}},{"base_weights":[6.6643474E-3,-2.4320221E-1,5.5540997E-1,-2.9095656E-1,1.1447431E0,4.6229795E-1,2.908076E0,-3.294364E-1,1.2749363E0,2.2405586E0,4.582428E-2,1.3189332E0,2.669961E-1,4.1570044E0,-4.690363E-2,-3.55555E-1,1.2826761E0,2.7961338E0,-4.1500145E-1,3.5332875E0,1.988596E-1,-7.408248E-1,1.4382076E0,8.589726E-1,4.4281826E0,1.5100116E-1,2.2924433E0],"categories":[],"categories_nodes":[],"categories_segments":[],"categories_sizes":[],"default_left":[1,1,1,1,1,1,1,1,0,0,1,1,1,0,0,0,0,0,0,0,0,0,0,0,0,0,0],"id":7,"left_children":[1,3,5,7,9,11,13,15,17,19,21,23,25,-1,-1,-1,-1,-1,-1,-1,-1,-1,-1,-1,-1,-1,-1],"loss_changes":[4.316098E1,1.46704445E1,2.022977E1,1.3068569E1,8.805737E0,1.5696201E1,1.333461E1,9.116299E0,1.463112E1,9.018684E0,6.229335E0,2.1302858E1,1.8300865E1,0E0,0E0,0E0,0E0,0E0,0E0,0E0,0E0,0E0,0E0,0E0,0E0,0E0,0E0],"parents":[2147483647,0,0,1,1,2,2,3,3,4,4,5,5,6,6,7,7,8,8,9,9,10,10,11,11,12,12],"right_children":[2,4,6,8,10,12,14,16,18,20,22,24,26,-1,-1,-1,-1,-1,-1,-1,-1,-1,-1,-1,-1,-1,-1],"split_conditions":[-9.536743E-7,-9.536743E-7,-9.536743E-7,-9.536743E-7,-9.536743E-7,-9.536743E-7,-9.536743E-7,-9.536743E-7,3.8537547E-2,9.615385E-2,2.6595745E-2,-9.536743E-7,-9.536743E-7,4.1570044E-1,-4.690363E-3,-3.55555E-2,1.2826762E-1,2.7961338E-1,-4.1500147E-2,3.5332876E-1,1.9885961E-2,-7.408249E-2,1.4382076E-1,8.589726E-2,4.4281825E-1,1.5100116E-2,2.2924434E-1],"split_indices":[6621,23892,20373,29786,25870,12846,23255,20543,42,41,28,6598,20640,0,0,0,0,0,0,0,0,0,0,0,0,0,0],"split_type":[0,0,0,0,0,0,0,0,0,0,0,0,0,0,0,0,0,0,0,0,0,0,0,0,0,0,0],"sum_hessian":[3.1279843E2,2.153139E2,9.748452E1,2.089162E2,6.397706E0,9.492418E1,2.5603375E0,2.0467616E2,4.240039E0,2.683204E0,3.7145023E0,1.6555397E1,7.836878E1,1.5137631E0,1.0465745E0,2.0218E2,2.4961698E0,1.886936E0,2.3531032E0,1.1956193E0,1.4875847E0,2.6725483E0,1.0419539E0,1.5533712E1,1.0216854E0,7.514015E1,3.2286336E0],"tree_param":{"num_deleted":"0","num_feature":"31654","num_nodes":"27","size_leaf_vector":"0"}},{"base_weights":[9.9729E-3,-2.5142717E-1,4.570575E-1,-2.7587384E-1,1.6980352E0,4.033882E-1,2.981532E0,5.0109386E-1,-3.3350447E-1,8.8723195E-1,1.5926711E-1,9.764847E-2,2.5643556E0,-4.2762285E-1,1.0059169E-1,6.584589E-1,3.41339E0,3.3241093E-1,-8.461315E-1],"categories":[],"categories_nodes":[],"categories_segments":[],"categories_sizes":[],"default_left":[1,1,1,0,0,1,0,1,1,1,1,0,0,0,0,0,0,0,0],"id":8,"left_children":[1,3,5,7,-1,9,-1,11,13,15,17,-1,-1,-1,-1,-1,-1,-1,-1],"loss_changes":[3.664323E1,9.899191E0,1.4469875E1,8.956593E0,0E0,1.3374119E1,0E0,1.13651495E1,7.5336246E0,1.9801798E1,1.3732553E1,0E0,0E0,0E0,0E0,0E0,0E0,0E0,0E0],"parents":[2147483647,0,0,1,1,2,2,3,3,5,5,7,7,8,8,9,9,10,10],"right_children":[2,4,6,8,-1,10,-1,12,14,16,18,-1,-1,-1,-1,-1,-1,-1,-1],"split_conditions":[-9.536743E-7,-9.536743E-7,-9.536743E-7,3.816794E-3,1.6980353E-1,-9.536743E-7,2.9815322E-1,-9.536743E-7,-9.536743E-7,-9.536743E-7,-9.536743E-7,9.764847E-3,2.5643557E-1,-4.2762287E-2,1.00591695E-2,6.584589E-2,3.41339E-1,3.3241093E-2,-8.461315E-2],"split_indices":[2480,18539,29895,5671,0,11330,0,18614,11666,6957,25864,0,0,0,0,0,0,0,0],"split_type":[0,0,0,0,0,0,0,0,0,0,0,0,0,0,0,0,0,0,0],"sum_hessian":[3.1156055E2,1.968844E2,1.1467614E2,1.9529385E2,1.5905385E0,1.13424576E2,1.2515695E0,1.2954069E1,1.8233978E2,3.71532E1,7.627138E1,1.1711381E1,1.2426887E0,1.4986235E2,3.2477436E1,3.5223915E1,1.92928E0,6.5637115E1,1.0634262E1],"tree_param":{"num_deleted":"0","num_feature":"31654","num_nodes":"19","size_leaf_vector":"0"}},{"base_weights":[1.0702595E-2,-2.8227058E-1,3.526976E-1,-3.388869E-1,1.2974511E0,2.390176E-1,1.5410962E0,2.9780135E-1,-4.130706E-1,-4.3598896E-1,2.624042E0,1.9124407E-1,2.808189E0,2.6769142E0,4.361609E-1,7.941716E-2,1.9186295E0,-4.5403948E-1,9.5659083E-1,-1.08472165E-2,-6.0512036E-1,3.8012445E0,5.900711E-1,1.480893E-1,2.7741973E0,3.541258E0,-1.6149278E-1,1.4509377E0,-5.8131427E-1],"categories":[],"categories_nodes":[],"categories_segments":[],"categories_sizes":[],"default_left":[1,1,1,1,0,1,0,1,1,1,1,1,0,1,1,0,0,0,0,0,0,0,0,0,0,0,0,0,0],"id":9,"left_children":[1,3,5,7,9,11,13,15,17,19,21,23,-1,25,27,-1,-1,-1,-1,-1,-1,-1,-1,-1,-1,-1,-1,-1,-1],"loss_changes":[3.1372124E1,1.5524451E1,1.914701E1,7.8510475E0,1.5039623E1,1.5790359E1,1.4429939E1,6.097091E0,8.680958E0,2.4346083E-1,6.2942867E0,1.4266069E1,0E0,1.5129696E1,8.581507E0,0E0,0E0,0E0,0E0,0E0,0E0,0E0,0E0,0E0,0E0,0E0,0E0,0E0,0E0],"parents":[2147483647,0,0,1,1,2,2,3,3,4,4,5,5,6,6,7,7,8,8,9,9,10,10,11,11,13,13,14,14],"right_children":[2,4,6,8,10,12,14,16,18,20,22,24,-1,26,28,-1,-1,-1,-1,-1,-1,-1,-1,-1,-1,-1,-1,-1,-1],"split_conditions":[-9.536743E-7,-9.536743E-7,-9.536743E-7,3.816794E-3,4.87013E-2,-9.536743E-7,4.4529263E-2,-9.536743E-7,-9.536743E-7,-9.536743E-7,-9.536743E-7,-9.536743E-7,2.808189E-1,-9.536743E-7,-9.536743E-7,7.941716E-3,1.9186296E-1,-4.540395E-2,9.5659085E-2,-1.0847216E-3,-6.0512036E-2,3.8012445E-1,5.900711E-2,1.480893E-2,2.7741975E-1,3.5412583E-1,-1.6149279E-2,1.4509378E-1,-5.8131427E-2],"split_indices":[26162,19415,3835,5671,31,1521,5671,24489,20914,26489,26135,13212,0,3474,22049,0,0,0,0,0,0,0,0,0,0,0,0,0,0],"split_type":[0,0,0,0,0,0,0,0,0,0,0,0,0,0,0,0,0,0,0,0,0,0,0,0,0,0,0,0,0],"sum_hessian":[3.1111594E2,1.6766167E2,1.4345427E2,1.6261897E2,5.0426927E0,1.3202603E2,1.1428237E1,1.6655685E1,1.4596329E2,2.4771621E0,2.5655308E0,1.3067065E2,1.3553733E0,4.9338245E0,6.494412E0,1.5602467E1,1.053219E0,1.4237317E2,3.5901215E0,1.0078605E0,1.4693015E0,1.0746669E0,1.4908639E0,1.2956331E2,1.1073492E0,3.592289E0,1.3415357E0,3.0382257E0,3.4561863E0],"tree_param":{"num_deleted":"0","num_feature":"31654","num_nodes":"29","size_leaf_vector":"0"}},{"base_weights":[1.2805959E-2,-1.4316303E-1,5.508093E-1,-1.6761883E-1,2.508276E0,4.264279E-1,2.0348907E0,-2.0342378E-1,1.1871753E0,2.1399362E-1,1.3485948E0,2.7433686E0,-1.3280381E-1,-2.2460347E-1,2.0653105E0,-4.433967E-1,2.3542845E0,1.0220785E-1,1.8095186E0,2.6739326E0,4.162198E-1,3.701504E0,3.194238E-1],"categories":[],"categories_nodes":[],"categories_segments":[],"categories_sizes":[],"default_left":[1,1,1,1,0,1,0,1,0,1,1,1,0,0,0,0,0,0,0,0,0,0,0],"id":10,"left_children":[1,3,5,7,-1,9,11,13,15,17,19,21,-1,-1,-1,-1,-1,-1,-1,-1,-1,-1,-1],"loss_changes":[2.6193958E1,1.6116877E1,1.2081879E1,1.1921982E1,0E0,1.2639395E1,8.288471E0,1.1777363E1,1.3121047E1,9.593551E0,1.3922455E1,7.9564037E0,0E0,0E0,0E0,0E0,0E0,0E0,0E0,0E0,0E0,0E0,0E0],"parents":[2147483647,0,0,1,1,2,2,3,3,5,5,6,6,7,7,8,8,9,9,10,10,11,11],"right_children":[2,4,6,8,-1,10,12,14,16,18,20,22,-1,-1,-1,-1,-1,-1,-1,-1,-1,-1,-1],"split_conditions":[-9.536743E-7,-9.536743E-7,-9.536743E-7,-9.536743E-7,2.508276E-1,-9.536743E-7,1.7307693E-1,-9.536743E-7,4.7468357E-2,-9.536743E-7,-9.536743E-7,-9.536743E-7,-1.3280381E-2,-2.2460347E-2,2.0653105E-1,-4.4339668E-2,2.3542845E-1,1.0220785E-2,1.8095186E-1,2.6739326E-1,4.162198E-2,3.7015042E-1,3.194238E-2],"split_indices":[19769,13208,11190,15,0,2315,41,2220,30,6470,26185,18614,0,0,0,0,0,0,0,0,0,0,0],"split_type":[0,0,0,0,0,0,0,0,0,0,0,0,0,0,0,0,0,0,0,0,0,0,0],"sum_hessian":[3.1022073E2,2.4106816E2,6.9152565E1,2.3979318E2,1.2749735E0,6.499283E1,4.15974E0,2.3444699E2,5.3461967E0,5.3825428E1,1.1167398E1,2.9349325E0,1.2248077E0,2.3317123E2,1.2757615E0,2.488957E0,2.85724E0,5.129561E1,2.5298173E0,3.840456E0,7.3269424E0,1.7257291E0,1.2092032E0],"tree_param":{"num_deleted":"0","num_feature":"31654","num_nodes":"23","size_leaf_vector":"0"}},{"base_weights":[1.4838858E-2,-2.0066105E-1,3.6335236E-1,-2.4624469E-2,-5.7971036E-1,7.005367E-1,4.5358177E-2,-1.9778675E-1,5.8794165E-1,-6.3594925E-1,9.6929026E-1,1.1228042E0,9.269535E-3,-9.8477304E-2,1.9992596E0,-2.5472245E-1,1.385419E0,1.6379207E0,5.87174E-2,-6.795124E-1,8.165596E-1,1.2777221E0,-7.222549E-1,-2.2881013E-1,1.8147815E0,-2.1753393E-1,1.8658586E0,3.068242E0,-5.404788E-1],"categories":[],"categories_nodes":[],"categories_segments":[],"categories_sizes":[],"default_left":[1,1,0,1,1,1,1,1,0,1,0,1,1,1,1,0,0,0,0,0,0,0,0,0,0,0,0,0,0],"id":11,"left_children":[1,3,5,7,9,11,13,15,17,19,-1,21,23,25,27,-1,-1,-1,-1,-1,-1,-1,-1,-1,-1,-1,-1,-1,-1],"loss_changes":[2.3373074E1,1.2820202E1,1.2716108E1,1.4159317E1,5.9264183E0,1.6813358E1,1.7693396E1,9.724079E0,1.6256418E1,4.3148956E0,0E0,1.1147354E1,1.0243663E1,1.4190154E1,1.337508E1,0E0,0E0,0E0,0E0,0E0,0E0,0E0,0E0,0E0,0E0,0E0,0E0,0E0,0E0],"parents":[2147483647,0,0,1,1,2,2,3,3,4,4,5,5,6,6,7,7,8,8,9,9,11,11,12,12,13,13,14,14],"right_children":[2,4,6,8,10,12,14,16,18,20,-1,22,24,26,28,-1,-1,-1,-1,-1,-1,-1,-1,-1,-1,-1,-1,-1,-1],"split_conditions":[-9.536743E-7,-9.536743E-7,2.56917E-1,-9.536743E-7,-9.536743E-7,-9.536743E-7,-9.536743E-7,-9.536743E-7,3.723404E-2,-9.536743E-7,9.692903E-2,-9.536743E-7,-9.536743E-7,-9.536743E-7,-9.536743E-7,-2.5472244E-2,1.385419E-1,1.6379207E-1,5.87174E-3,-6.795124E-2,8.1655964E-2,1.2777221E-1,-7.222549E-2,-2.2881014E-2,1.8147816E-1,-2.1753393E-2,1.8658586E-1,3.068242E-1,-5.4047883E-2],"split_indices":[26146,26248,42,2064,25634,22049,26572,12875,28,11148,0,24823,13043,25897,11378,0,0,0,0,0,0,0,0,0,0,0,0,0,0],"split_type":[0,0,0,0,0,0,0,0,0,0,0,0,0,0,0,0,0,0,0,0,0,0,0,0,0,0,0,0,0],"sum_hessian":[3.0923605E2,1.9134438E2,1.1789168E2,1.3138982E2,5.9954567E1,5.6635445E1,6.1256237E1,1.0296144E2,2.8428371E1,5.8422882E1,1.531688E0,3.4770977E1,2.186447E1,5.794057E1,3.3156667E0,1.0019723E2,2.764212E0,8.824885E0,1.9603487E1,5.7238388E1,1.1844938E0,3.2361294E1,2.4096835E0,2.008878E1,1.7756892E0,5.5467964E1,2.4726052E0,2.1870415E0,1.1286252E0],"tree_param":{"num_deleted":"0","num_feature":"31654","num_nodes":"29","size_leaf_vector":"0"}},{"base_weights":[1.4136699E-2,-1.847084E-1,3.572934E-1,-4.5682573E-1,8.376541E-3,2.2265485E-1,1.5019389E0,-5.105904E-1,1.7076199E0,-6.75745E-2,1.3053192E0,-1.5424041E-2,7.158756E-1,2.6485994E0,-4.01182E-2,-5.765205E-1,6.438834E-1,-1.1144021E-1,2.0768309E0,2.040737E0,-3.1515232E-1,5.8658874E-1,-3.7447777E-1,9.4788027E-1,-8.1993973E-1,3.3546953E0,-1.5500312E-1,1.1678677E0,-6.1478305E-1],"categories":[],"categories_nodes":[],"categories_segments":[],"categories_sizes":[],"default_left":[1,1,1,1,1,1,1,1,0,1,1,1,1,1,1,0,0,0,0,0,0,0,0,0,0,0,0,0,0],"id":12,"left_children":[1,3,5,7,9,11,13,15,-1,17,19,21,23,25,27,-1,-1,-1,-1,-1,-1,-1,-1,-1,-1,-1,-1,-1,-1],"loss_changes":[2.1230204E1,1.0356356E1,1.7254864E1,1.0390808E1,1.1537938E1,1.2140412E1,2.1038054E1,6.504942E0,0E0,1.0649843E1,8.365052E0,1.5489951E1,1.2766937E1,1.3989754E1,4.906405E0,0E0,0E0,0E0,0E0,0E0,0E0,0E0,0E0,0E0,0E0,0E0,0E0,0E0,0E0],"parents":[2147483647,0,0,1,1,2,2,3,3,4,4,5,5,6,6,7,7,9,9,10,10,11,11,12,12,13,13,14,14],"right_children":[2,4,6,8,10,12,14,16,-1,18,20,22,24,26,28,-1,-1,-1,-1,-1,-1,-1,-1,-1,-1,-1,-1,-1,-1],"split_conditions":[-9.536743E-7,-9.536743E-7,-9.536743E-7,-9.536743E-7,-9.536743E-7,-9.536743E-7,-9.536743E-7,-9.536743E-7,1.7076199E-1,-9.536743E-7,-9.536743E-7,-9.536743E-7,-9.536743E-7,-9.536743E-7,-9.536743E-7,-5.7652052E-2,6.438834E-2,-1.11440215E-2,2.0768309E-1,2.040737E-1,-3.1515233E-2,5.8658876E-2,-3.7447777E-2,9.478803E-2,-8.1993975E-2,3.3546954E-1,-1.5500312E-2,1.1678677E-1,-6.1478306E-2],"split_indices":[12444,18,25871,28511,28482,18319,11609,29906,0,5776,4937,26185,26315,22811,25874,0,0,0,0,0,0,0,0,0,0,0,0,0,0],"split_type":[0,0,0,0,0,0,0,0,0,0,0,0,0,0,0,0,0,0,0,0,0,0,0,0,0,0,0,0,0],"sum_hessian":[3.0916632E2,1.960343E2,1.1313203E2,8.079825E1,1.15236046E2,1.0229422E2,1.0837805E1,7.958546E1,1.2127943E0,1.0975643E2,5.479615E0,6.964509E1,3.2649128E1,5.8042436E0,5.0335608E0,7.575957E1,3.8258862E0,1.084853E2,1.2711308E0,3.5907016E0,1.8889136E0,2.57826E1,4.386249E1,2.8696909E1,3.95222E0,4.4795012E0,1.3247423E0,1.2898812E0,3.7436795E0],"tree_param":{"num_deleted":"0","num_feature":"31654","num_nodes":"29","size_leaf_vector":"0"}},{"base_weights":[1.339331E-2,-2.2685827E-1,2.565764E-1,-2.8195575E-1,1.0303302E0,2.1821623E-1,2.3832316E0,-1.632016E-1,-7.210923E-1,-4.3327925E-1,1.957507E0,1.7014566E-1,1.98205E0,-2.1599421E-1,1.281091E0,-8.092841E-1,9.92959E-1,-9.806009E-3,-6.0295534E-1,2.7086885E0,-8.064911E-2,1.3152075E-1,2.0891974E0,2.6002738E-1,2.763117E0],"categories":[],"categories_nodes":[],"categories_segments":[],"categories_sizes":[],"default_left":[1,1,1,1,0,1,0,1,1,1,1,1,1,0,0,0,0,0,0,0,0,0,0,0,0],"id":13,"left_children":[1,3,5,7,9,11,-1,13,15,17,19,21,23,-1,-1,-1,-1,-1,-1,-1,-1,-1,-1,-1,-1],"loss_changes":[1.8177473E1,1.1133363E1,1.2091455E1,7.7437143E0,1.0058437E1,1.2631559E1,0E0,9.422792E0,5.61005E0,2.42046E-1,6.8573112E0,1.0843014E1,4.6132164E0,0E0,0E0,0E0,0E0,0E0,0E0,0E0,0E0,0E0,0E0,0E0,0E0],"parents":[2147483647,0,0,1,1,2,2,3,3,4,4,5,5,7,7,8,8,9,9,10,10,11,11,12,12],"right_children":[2,4,6,8,10,12,-1,14,16,18,20,22,24,-1,-1,-1,-1,-1,-1,-1,-1,-1,-1,-1,-1],"split_conditions":[-9.536743E-7,-9.536743E-7,-9.536743E-7,-9.536743E-7,4.87013E-2,-9.536743E-7,2.3832317E-1,-9.536743E-7,-9.536743E-7,-9.536743E-7,-9.536743E-7,-9.536743E-7,1.6798418E-2,-2.1599421E-2,1.281091E-1,-8.092841E-2,9.929591E-2,-9.80601E-4,-6.0295533E-2,2.7086887E-1,-8.064911E-3,1.3152075E-2,2.0891975E-1,2.6002739E-2,2.7631173E-1],"split_indices":[26162,19415,29895,26306,31,26515,0,11790,1190,26488,26180,1521,42,0,0,0,0,0,0,0,0,0,0,0,0],"split_type":[0,0,0,0,0,0,0,0,0,0,0,0,0,0,0,0,0,0,0,0,0,0,0,0,0],"sum_hessian":[3.0912802E2,1.5553505E2,1.5359299E2,1.4974792E2,5.78712E0,1.5195467E2,1.6383164E0,1.18951836E2,3.0796087E1,2.4509013E0,3.3362186E0,1.4899063E2,2.9640465E0,1.1557763E2,3.3742101E0,2.979112E1,1.0049667E0,1.0036957E0,1.4472054E0,2.1973684E0,1.1388502E0,1.470985E2,1.8921294E0,1.3408284E0,1.6232179E0],"tree_param":{"num_deleted":"0","num_feature":"31654","num_nodes":"25","size_leaf_vector":"0"}},{"base_weights":[1.4332839E-2,-1.10538304E-1,4.1162622E-1,-1.6862899E-1,9.3133813E-1,5.491891E-1,-6.760908E-1,-9.002079E-3,-5.0858074E-1,-3.5916224E-2,1.8304882E0,3.1374675E-1,1.2685645E0,-8.8615066E-1,4.0325874E-1,-7.537058E-2,1.3719532E0,-5.767992E-1,9.8546857E-1,-6.7352796E-1,1.5393816E0,3.159455E0,3.5953572E-1,1.7229414E-1,1.6273354E0,1.8475034E0,-1.426896E-1],"categories":[],"categories_nodes":[],"categories_segments":[],"categories_sizes":[],"default_left":[1,1,1,1,1,1,1,1,1,1,1,1,1,0,0,0,0,0,0,0,0,0,0,0,0,0,0],"id":14,"left_children":[1,3,5,7,9,11,13,15,17,19,21,23,25,-1,-1,-1,-1,-1,-1,-1,-1,-1,-1,-1,-1,-1,-1],"loss_changes":[1.5403237E1,1.4460199E1,1.148007E1,1.218836E1,1.1053544E1,1.0858154E1,2.3487883E0,1.4209996E1,7.8839417E0,8.135324E0,1.1700962E1,9.270184E0,1.3384274E1,0E0,0E0,0E0,0E0,0E0,0E0,0E0,0E0,0E0,0E0,0E0,0E0,0E0,0E0],"parents":[2147483647,0,0,1,1,2,2,3,3,4,4,5,5,6,6,7,7,8,8,9,9,10,10,11,11,12,12],"right_children":[2,4,6,8,10,12,14,16,18,20,22,24,26,-1,-1,-1,-1,-1,-1,-1,-1,-1,-1,-1,-1,-1,-1],"split_conditions":[-9.536743E-7,-9.536743E-7,-9.536743E-7,-9.536743E-7,1.5669015E-1,-9.536743E-7,-9.536743E-7,-9.536743E-7,-9.536743E-7,-9.536743E-7,-9.536743E-7,-9.536743E-7,2.8005464E-2,-8.861507E-2,4.0325876E-2,-7.537058E-3,1.3719533E-1,-5.767992E-2,9.8546855E-2,-6.7352794E-2,1.5393816E-1,3.159455E-1,3.5953574E-2,1.7229414E-2,1.6273354E-1,1.8475035E-1,-1.426896E-2],"split_indices":[6722,4228,26315,26248,5669,6574,11549,31568,1764,26306,13002,999,25,0,0,0,0,0,0,0,0,0,0,0,0,0,0],"split_type":[0,0,0,0,0,0,0,0,0,0,0,0,0,0,0,0,0,0,0,0,0,0,0,0,0,0,0],"sum_hessian":[3.085664E2,2.3532457E2,7.324182E1,2.2369066E2,1.1633912E1,6.5458435E1,7.783389E0,1.5291483E2,7.077583E1,6.0672097E0,5.5667024E0,5.039947E1,1.5058965E1,6.6652193E0,1.1181698E0,1.4680482E2,6.1099954E0,6.827244E1,2.5033944E0,4.726552E0,1.3406577E0,2.3214426E0,3.2452598E0,4.6521057E1,3.8784153E0,1.0459174E1,4.59979E0],"tree_param":{"num_deleted":"0","num_feature":"31654","num_nodes":"27","size_leaf_vector":"0"}},{"base_weights":[1.3988159E-2,-6.974841E-2,5.59352E-1,-1.0849796E-1,1.1773043E0,8.313215E-1,-5.661719E-1,5.057085E-1,-1.7647544E-1,1.9945972E0,-6.9002055E-2,1.3725816E0,2.0821758E-1,-8.824517E-1,5.0606436E-1,2.4647433E-1,2.128638E0,-2.8193247E-1,2.574905E-1,2.8014693E0,-1.4323893E-1,-7.0148665E-1,9.729311E-1,-5.419156E-1,1.8321475E0,-1.0825688E-1,1.8697104E0],"categories":[],"categories_nodes":[],"categories_segments":[],"categories_sizes":[],"default_left":[1,1,1,1,1,1,1,1,1,0,1,1,1,0,0,0,0,0,0,0,0,0,0,0,0,0,0],"id":15,"left_children":[1,3,5,7,9,11,13,15,17,19,21,23,25,-1,-1,-1,-1,-1,-1,-1,-1,-1,-1,-1,-1,-1,-1],"loss_changes":[1.41661005E1,1.3129626E1,1.3108981E1,1.10229225E1,8.483014E0,1.1065487E1,3.3731873E0,1.0562663E1,1.0896755E1,8.994324E0,3.457854E0,1.6682735E1,9.049095E0,0E0,0E0,0E0,0E0,0E0,0E0,0E0,0E0,0E0,0E0,0E0,0E0,0E0,0E0],"parents":[2147483647,0,0,1,1,2,2,3,3,4,4,5,5,6,6,7,7,8,8,9,9,10,10,11,11,12,12],"right_children":[2,4,6,8,10,12,14,16,18,20,22,24,26,-1,-1,-1,-1,-1,-1,-1,-1,-1,-1,-1,-1,-1,-1],"split_conditions":[2.8481014E-2,-9.536743E-7,-9.536743E-7,3.816794E-3,-9.536743E-7,-9.536743E-7,-9.536743E-7,-9.536743E-7,-9.536743E-7,5.532787E-2,-9.536743E-7,-9.536743E-7,-9.536743E-7,-8.8245176E-2,5.0606437E-2,2.4647433E-2,2.128638E-1,-2.8193248E-2,2.5749048E-2,2.8014693E-1,-1.4323893E-2,-7.014867E-2,9.729311E-2,-5.419156E-2,1.8321475E-1,-1.0825688E-2,1.8697105E-1],"split_indices":[30,7068,21886,5671,25857,26177,23960,26602,18319,25,26555,26600,6470,0,0,0,0,0,0,0,0,0,0,0,0,0,0],"split_type":[0,0,0,0,0,0,0,0,0,0,0,0,0,0,0,0,0,0,0,0,0,0,0,0,0,0,0],"sum_hessian":[3.0835074E2,2.6806366E2,4.028708E1,2.6087064E2,7.193013E0,3.2657234E1,7.6298413E0,2.5353271E1,2.3551738E2,3.9815903E0,3.211423E0,1.6832685E1,1.5824551E1,6.028578E0,1.6012639E0,2.2854534E1,2.4987366E0,1.8975565E2,4.5761734E1,2.6652403E0,1.3163501E0,2.2016816E0,1.0097414E0,3.2237468E0,1.3608938E1,1.4077894E1,1.7466568E0],"tree_param":{"num_deleted":"0","num_feature":"31654","num_nodes":"27","size_leaf_vector":"0"}},{"base_weights":[1.3389043E-2,-2.4107475E-2,1.1235114E0,-1.408898E-1,2.827855E-1,1.5972179E0,-6.6730356E-1,-1.7076428E-1,1.5261426E0,8.272449E-1,-6.6773966E-2,-5.87643E-1,2.1146865E0,-1.8960435E-2,-5.273247E-1,-2.7661267E-1,3.0926867E0,5.005222E-1,1.949004E0,-2.4961706E-1,9.1698605E-1,3.0909207E0,1.4949322E-1],"categories":[],"categories_nodes":[],"categories_segments":[],"categories_sizes":[],"default_left":[1,1,1,1,0,1,0,1,1,1,1,0,1,0,0,0,0,0,0,0,0,0,0],"id":16,"left_children":[1,3,5,7,9,11,-1,13,15,17,19,-1,21,-1,-1,-1,-1,-1,-1,-1,-1,-1,-1],"loss_changes":[1.2900118E1,1.0796447E1,9.655458E0,1.1120886E1,1.5863493E1,1.0628925E1,0E0,1.1634415E1,1.1981891E1,1.0954695E1,9.494129E0,0E0,1.2832533E1,0E0,0E0,0E0,0E0,0E0,0E0,0E0,0E0,0E0,0E0],"parents":[2147483647,0,0,1,1,2,2,3,3,4,4,5,5,7,7,8,8,9,9,10,10,12,12],"right_children":[2,4,6,8,10,12,-1,14,16,18,20,-1,22,-1,-1,-1,-1,-1,-1,-1,-1,-1,-1],"split_conditions":[-9.536743E-7,-9.536743E-7,-9.536743E-7,-9.536743E-7,1.7307693E-1,3.4153005E-3,-6.673036E-2,-9.536743E-7,-9.536743E-7,-9.536743E-7,-9.536743E-7,-5.8764305E-2,-9.536743E-7,-1.8960435E-3,-5.2732468E-2,-2.7661268E-2,3.0926868E-1,5.0052222E-2,1.9490041E-1,-2.4961706E-2,9.169861E-2,3.0909207E-1,1.4949322E-2],"split_indices":[3917,23011,26496,2207,41,25,0,18639,26146,7178,7007,0,165,0,0,0,0,0,0,0,0,0,0],"split_type":[0,0,0,0,0,0,0,0,0,0,0,0,0,0,0,0,0,0,0,0,0,0,0],"sum_hessian":[3.0825668E2,2.9913126E2,9.125449E0,2.170702E2,8.206104E1,7.3020234E0,1.823426E0,2.1413039E2,2.9398155E0,3.155138E1,5.0509663E1,1.3722953E0,5.929728E0,1.509271E2,6.3203293E1,1.7497056E0,1.19011E0,2.5554571E1,5.9968095E0,4.3222523E1,7.2871394E0,3.578988E0,2.3507397E0],"tree_param":{"num_deleted":"0","num_feature":"31654","num_nodes":"23","size_leaf_vector":"0"}},{"base_weights":[1.28455E-2,-1.852965E-1,1.9461492E-1,-2.3792212E-1,1.0532777E0,1.2100289E-1,9.3141794E-1,-2.727407E-1,1.1397368E0,3.329506E-2,2.6242025E0,8.370297E-2,1.787626E0,1.7720131E0,-4.2061612E-1,-3.1116056E-1,8.956808E-1,1.5656741E0,-6.1199064E-3,1.0990385E0,-7.1607006E-1,4.8404805E-2,1.944757E0,2.4105034E0,3.69261E-1,2.7270184E0,8.3340354E-2,-8.53817E-1,9.447538E-1],"categories":[],"categories_nodes":[],"categories_segments":[],"categories_sizes":[],"default_left":[1,1,1,1,0,1,1,1,1,1,0,1,1,1,1,0,0,0,0,0,0,0,0,0,0,0,0,0,0],"id":17,"left_children":[1,3,5,7,9,11,13,15,17,19,-1,21,23,25,27,-1,-1,-1,-1,-1,-1,-1,-1,-1,-1,-1,-1,-1,-1],"loss_changes":[1.1167319E1,9.92238E0,8.656363E0,7.1775875E0,9.898222E0,9.059633E0,1.7266129E1,6.582695E0,1.8261013E0,4.6135774E0,0E0,9.493492E0,1.9315186E0,1.4537495E1,4.5808935E0,0E0,0E0,0E0,0E0,0E0,0E0,0E0,0E0,0E0,0E0,0E0,0E0,0E0,0E0],"parents":[2147483647,0,0,1,1,2,2,3,3,4,4,5,5,6,6,7,7,8,8,9,9,11,11,12,12,13,13,14,14],"right_children":[2,4,6,8,10,12,14,16,18,20,-1,22,24,26,28,-1,-1,-1,-1,-1,-1,-1,-1,-1,-1,-1,-1,-1,-1],"split_conditions":[-9.536743E-7,-9.536743E-7,-9.536743E-7,-9.536743E-7,4.713115E-2,-9.536743E-7,5.470738E-2,-9.536743E-7,-9.536743E-7,-9.536743E-7,2.6242027E-1,-9.536743E-7,-9.536743E-7,-9.536743E-7,-9.536743E-7,-3.1116057E-2,8.956808E-2,1.5656741E-1,-6.1199063E-4,1.0990385E-1,-7.160701E-2,4.8404806E-3,1.944757E-1,2.4105035E-1,3.6926102E-2,2.7270183E-1,8.334036E-3,-8.53817E-2,9.447538E-2],"split_indices":[26162,12538,6903,6620,25,1521,5671,20914,11326,25611,0,791,12841,11609,12866,0,0,0,0,0,0,0,0,0,0,0,0,0,0],"split_type":[0,0,0,0,0,0,0,0,0,0,0,0,0,0,0,0,0,0,0,0,0,0,0,0,0,0,0,0,0],"sum_hessian":[3.080629E2,1.4738406E2,1.6067885E2,1.4215208E2,5.2319756E0,1.4714246E2,1.3536384E1,1.3943019E2,2.7218943E0,3.791436E0,1.4405395E0,1.4494865E2,2.1938055E0,8.155356E0,5.3810267E0,1.3570175E2,3.7284348E0,1.717199E0,1.0046953E0,1.3726432E0,2.4187927E0,1.4325754E2,1.6911218E0,1.0383277E0,1.1554778E0,4.8165407E0,3.3388162E0,4.3693833E0,1.0116436E0],"tree_param":{"num_deleted":"0","num_feature":"31654","num_nodes":"29","size_leaf_vector":"0"}},{"base_weights":[1.4412896E-2,-7.0276E-3,1.590127E0,-2.7155926E-2,1.652485E0,2.235464E0,-7.588077E-2,-1.3062435E-1,2.7801356E-1,2.4255762E0,-7.284508E-2,1.6810589E-2,-4.4059983E-1,1.9076426E-1,1.995888E0],"categories":[],"categories_nodes":[],"categories_segments":[],"categories_sizes":[],"default_left":[1,1,0,1,1,0,0,1,1,0,0,0,0,0,0],"id":18,"left_children":[1,3,5,7,9,-1,-1,11,13,-1,-1,-1,-1,-1,-1],"loss_changes":[1.0426373E1,1.023767E1,4.6238146E0,9.586967E0,5.075778E0,0E0,0E0,1.0361698E1,1.11462345E1,0E0,0E0,0E0,0E0,0E0,0E0],"parents":[2147483647,0,0,1,1,2,2,3,3,4,4,7,7,8,8],"right_children":[2,4,6,8,10,-1,-1,12,14,-1,-1,-1,-1,-1,-1],"split_conditions":[-9.536743E-7,-9.536743E-7,4.4529263E-2,-9.536743E-7,-9.536743E-7,2.2354642E-1,-7.5880773E-3,-9.536743E-7,-9.536743E-7,2.4255763E-1,-7.284508E-3,1.6810589E-3,-4.4059984E-2,1.9076427E-2,1.995888E-1],"split_indices":[13522,28020,5671,6722,22702,0,0,26248,20373,0,0,0,0,0,0],"split_type":[0,0,0,0,0,0,0,0,0,0,0,0,0,0,0],"sum_hessian":[3.0728705E2,3.0414417E2,3.142902E0,3.0147122E2,2.6729262E0,2.019016E0,1.1238859E0,2.2556488E2,7.590634E1,1.5655622E0,1.1073639E0,1.5350053E2,7.206435E1,7.3294815E1,2.611531E0],"tree_param":{"num_deleted":"0","num_feature":"31654","num_nodes":"15","size_leaf_vector":"0"}},{"base_weights":[1.43413665E-2,7.726067E-2,-4.906536E-1,5.220589E-2,1.8359379E0,-6.9137484E-1,1.1666876E0,2.6603913E-2,1.631702E0,-7.838373E-2,2.6532624E0,-5.13807E-3,-8.850307E-1,-6.296569E-1,2.5062149E0,-1.158626E-2,1.012008E0,-5.8776677E-2,2.1957757E0,-5.4335654E-1,1.4672239E0,-9.627271E-1,-1.2832317E-2],"categories":[],"categories_nodes":[],"categories_segments":[],"categories_sizes":[],"default_left":[1,1,1,1,1,0,1,1,1,0,0,1,1,0,0,0,0,0,0,0,0,0,0],"id":19,"left_children":[1,3,5,7,9,11,13,15,17,-1,-1,19,21,-1,-1,-1,-1,-1,-1,-1,-1,-1,-1],"loss_changes":[9.825383E0,1.2011484E1,1.2204758E1,1.0953412E1,6.200859E0,4.140383E0,1.1379825E1,1.0120645E1,4.2493696E0,0E0,0E0,7.034152E0,1.6356907E0,0E0,0E0,0E0,0E0,0E0,0E0,0E0,0E0,0E0,0E0],"parents":[2147483647,0,0,1,1,2,2,3,3,4,4,5,5,6,6,7,7,8,8,11,11,12,12],"right_children":[2,4,6,8,10,12,14,16,18,-1,-1,20,22,-1,-1,-1,-1,-1,-1,-1,-1,-1,-1],"split_conditions":[-9.536743E-7,-9.536743E-7,-9.536743E-7,-9.536743E-7,-9.536743E-7,2.6595745E-2,-9.536743E-7,-9.536743E-7,-9.536743E-7,-7.838373E-3,2.6532623E-1,-9.536743E-7,-9.536743E-7,-6.296569E-2,2.506215E-1,-1.158626E-3,1.012008E-1,-5.8776676E-3,2.1957758E-1,-5.4335654E-2,1.4672239E-1,-9.6272714E-2,-1.2832317E-3],"split_indices":[26315,1521,5438,13173,26176,28,25973,3917,23011,0,0,26274,7007,0,0,0,0,0,0,0,0,0,0],"split_type":[0,0,0,0,0,0,0,0,0,0,0,0,0,0,0,0,0,0,0,0,0,0,0],"sum_hessian":[3.0703473E2,2.7377148E2,3.3263256E1,2.7094122E2,2.830247E0,3.0189798E1,3.0734577E0,2.6762024E2,3.3210006E0,1.1173375E0,1.7129093E0,6.8704114E0,2.3319387E1,1.5392373E0,1.5342203E0,2.5858673E2,9.033506E0,1.0550147E0,2.265986E0,5.493308E0,1.3771033E0,2.1316679E1,2.0027082E0],"tree_param":{"num_deleted":"0","num_feature":"31654","num_nodes":"23","size_leaf_vector":"0"}},{"base_weights":[1.4407313E-2,-2.530076E-2,7.6211077E-1,5.227761E-1,-8.692606E-2,1.5757357E0,1.0147539E-1,1.7720447E-1,2.0002942E0,-1.5115063E-1,6.509147E-1,2.3409274E0,-6.2033486E-1,-5.385544E-1,9.900717E-1,8.309466E-1,-5.400868E-1,2.8616035E0,-5.6212133E-1,-1.9894321E-1,7.909323E-1,1.1524124E0,-1.4538419E-2,4.5021272E-1,3.69909E0,-8.1178933E-1,2.8979108E-1,2.3407686E0,-3.8844702E-1],"categories":[],"categories_nodes":[],"categories_segments":[],"categories_sizes":[],"default_left":[1,1,1,1,1,1,1,1,1,1,1,1,0,1,1,0,0,0,0,0,0,0,0,0,0,0,0,0,0],"id":20,"left_children":[1,3,5,7,9,11,13,15,17,19,21,23,-1,25,27,-1,-1,-1,-1,-1,-1,-1,-1,-1,-1,-1,-1,-1,-1],"loss_changes":[9.151317E0,9.942914E0,8.194615E0,1.4841265E1,1.26218E1,1.3040628E1,6.0196223E0,1.2273668E1,1.3844614E1,1.1140039E1,7.1417913E0,1.2005337E1,0E0,1.6510565E0,9.085873E0,0E0,0E0,0E0,0E0,0E0,0E0,0E0,0E0,0E0,0E0,0E0,0E0,0E0,0E0],"parents":[2147483647,0,0,1,1,2,2,3,3,4,4,5,5,6,6,7,7,8,8,9,9,10,10,11,11,13,13,14,14],"right_children":[2,4,6,8,10,12,14,16,18,20,22,24,-1,26,28,-1,-1,-1,-1,-1,-1,-1,-1,-1,-1,-1,-1,-1,-1],"split_conditions":[-9.536743E-7,3.816794E-3,-9.536743E-7,-9.536743E-7,-9.536743E-7,-9.536743E-7,-9.536743E-7,-9.536743E-7,-9.536743E-7,-9.536743E-7,-9.536743E-7,-9.536743E-7,-6.2033486E-2,-9.536743E-7,-9.536743E-7,8.3094664E-2,-5.400868E-2,2.8616035E-1,-5.6212135E-2,-1.9894322E-2,7.909323E-2,1.15241244E-1,-1.4538419E-3,4.5021273E-2,3.6990902E-1,-8.117893E-2,2.8979108E-2,2.3407686E-1,-3.88447E-2],"split_indices":[13,5671,26123,26602,4228,7011,2429,26736,26440,15,13004,25886,0,21517,26059,0,0,0,0,0,0,0,0,0,0,0,0,0,0],"split_type":[0,0,0,0,0,0,0,0,0,0,0,0,0,0,0,0,0,0,0,0,0,0,0,0,0,0,0,0,0],"sum_hessian":[3.065809E2,2.9203787E2,1.454301E1,2.8761206E1,2.6327667E2,5.8961954E0,8.646814E0,2.4217087E1,4.544118E0,2.4292653E2,2.0350138E1,4.323698E0,1.572497E0,5.2554183E0,3.3913963E0,1.2586892E1,1.1630195E1,3.3135638E0,1.2305542E0,2.3194844E2,1.0978095E1,1.1187365E1,9.162774E0,2.364097E0,1.9596012E0,3.966899E0,1.2885194E0,1.3604106E0,2.0309858E0],"tree_param":{"num_deleted":"0","num_feature":"31654","num_nodes":"29","size_leaf_vector":"0"}},{"base_weights":[1.4311034E-2,-1.8564068E-2,9.231077E-1,4.5846358E-2,-5.7040846E-1,2.4752283E-1,2.4916966E0,1.5568019E-2,1.3005824E0,-7.088247E-1,1.0284601E0,-5.117964E-1,1.4362717E0,3.7306397E0,-2.7004795E-2,-9.6710175E-3,1.5660689E0,2.8730054E0,1.7053409E-1,-7.9812205E-1,4.4163507E-1,-8.0971265E-1,4.611317E-1,2.7136197E0,-2.278893E-1],"categories":[],"categories_nodes":[],"categories_segments":[],"categories_sizes":[],"default_left":[1,1,1,1,1,1,1,1,1,1,0,1,0,0,0,0,0,0,0,0,0,0,0,0,0],"id":21,"left_children":[1,3,5,7,9,11,13,15,17,19,-1,21,23,-1,-1,-1,-1,-1,-1,-1,-1,-1,-1,-1,-1],"loss_changes":[9.195085E0,1.0598839E1,1.0769112E1,1.0134283E1,7.6257734E0,8.51594E0,9.8497505E0,1.0268018E1,1.0679452E1,3.3597403E0,0E0,2.111749E0,8.319171E0,0E0,0E0,0E0,0E0,0E0,0E0,0E0,0E0,0E0,0E0,0E0,0E0],"parents":[2147483647,0,0,1,1,2,2,3,3,4,4,5,5,6,6,7,7,8,8,9,9,11,11,12,12],"right_children":[2,4,6,8,10,12,14,16,18,20,-1,22,24,-1,-1,-1,-1,-1,-1,-1,-1,-1,-1,-1,-1],"split_conditions":[-9.536743E-7,-9.536743E-7,-9.536743E-7,-9.536743E-7,-9.536743E-7,8.893281E-3,-9.536743E-7,-9.536743E-7,-9.536743E-7,-9.536743E-7,1.0284602E-1,-9.536743E-7,2.0750988E-2,3.7306398E-1,-2.7004795E-3,-9.671018E-4,1.566069E-1,2.8730056E-1,1.7053409E-2,-7.981221E-2,4.4163506E-2,-8.097126E-2,4.611317E-2,2.7136198E-1,-2.278893E-2],"split_indices":[7068,26315,2976,3650,4275,42,26714,2424,22049,11485,0,26285,42,0,0,0,0,0,0,0,0,0,0,0,0],"split_type":[0,0,0,0,0,0,0,0,0,0,0,0,0,0,0,0,0,0,0,0,0,0,0,0,0],"sum_hessian":[3.061933E2,2.9644904E2,9.74427E0,2.6628552E2,3.0163513E1,7.6201167E0,2.1241534E0,2.609997E2,5.2858396E0,2.8272587E1,1.8909247E0,4.997442E0,2.6226747E0,1.101267E0,1.0228863E0,2.5779703E2,3.2026546E0,1.5653437E0,3.720496E0,2.6520367E1,1.7522216E0,3.954353E0,1.0430888E0,1.1270045E0,1.4956702E0],"tree_param":{"num_deleted":"0","num_feature":"31654","num_nodes":"25","size_leaf_vector":"0"}},{"base_weights":[1.5483331E-2,5.0182696E-2,-7.773646E-1,3.0396285E-2,1.5076412E0,-9.221149E-1,4.3607333E-1,1.0313531E-1,-3.788871E-1,-9.006383E-2,2.2316227E0,2.0507205E-2,5.8610785E-1,-4.6908212E-1,1.1299745E0],"categories":[],"categories_nodes":[],"categories_segments":[],"categories_sizes":[],"default_left":[1,1,1,1,1,0,0,1,1,0,0,0,0,0,0],"id":22,"left_children":[1,3,5,7,9,-1,-1,11,13,-1,-1,-1,-1,-1,-1],"loss_changes":[8.4752865E0,8.45353E0,2.671184E0,8.726275E0,4.743456E0,0E0,0E0,9.907049E0,6.5518384E0,0E0,0E0,0E0,0E0,0E0,0E0],"parents":[2147483647,0,0,1,1,2,2,3,3,4,4,7,7,8,8],"right_children":[2,4,6,8,10,-1,-1,12,14,-1,-1,-1,-1,-1,-1],"split_conditions":[-9.536743E-7,-9.536743E-7,-9.536743E-7,-9.536743E-7,6.147541E-3,-9.221149E-2,4.3607336E-2,2.8481014E-2,-9.536743E-7,-9.006384E-3,2.2316228E-1,2.0507206E-3,5.8610786E-2,-4.690821E-2,1.1299745E-1],"split_indices":[12114,7029,6858,28847,25,0,0,30,3052,0,0,0,0,0,0],"split_type":[0,0,0,0,0,0,0,0,0,0,0,0,0,0,0],"sum_hessian":[3.0564746E2,2.93729E2,1.1918483E1,2.9080194E2,2.9270623E0,1.0862752E1,1.0557309E0,2.4755394E2,4.324799E1,1.1858002E0,1.7412621E0,2.1227917E2,3.527477E1,4.1458828E1,1.7891634E0],"tree_param":{"num_deleted":"0","num_feature":"31654","num_nodes":"15","size_leaf_vector":"0"}},{"base_weights":[1.4247132E-2,4.3474056E-2,-9.020381E-1,8.140531E-2,-6.746583E-1,1.5937735E-1,-3.3080503E-1,-8.5855305E-1,6.5711874E-1,2.2250578E-1,-3.6270276E-1,-4.0402177E-1,1.4477262E0,-9.256525E-1,-2.939393E-2],"categories":[],"categories_nodes":[],"categories_segments":[],"categories_sizes":[],"default_left":[1,1,0,1,1,1,1,1,0,0,0,0,0,0,0],"id":23,"left_children":[1,3,-1,5,7,9,11,13,-1,-1,-1,-1,-1,-1,-1],"loss_changes":[8.253823E0,8.178173E0,0E0,9.185402E0,4.254645E0,7.9781833E0,6.5128884E0,7.335682E-1,0E0,0E0,0E0,0E0,0E0,0E0,0E0],"parents":[2147483647,0,0,1,1,3,3,4,4,5,5,6,6,7,7],"right_children":[2,4,-1,6,8,10,12,14,-1,-1,-1,-1,-1,-1,-1],"split_conditions":[-9.536743E-7,-9.536743E-7,-9.0203814E-2,-9.536743E-7,-9.536743E-7,-9.536743E-7,-9.536743E-7,-9.536743E-7,6.571188E-2,2.2250578E-2,-3.6270276E-2,-4.0402178E-2,1.4477263E-1,-9.256525E-2,-2.939393E-3],"split_indices":[6,7,0,28847,26013,9,2219,31345,0,0,0,0,0,0,0],"split_type":[0,0,0,0,0,0,0,0,0,0,0,0,0,0,0],"sum_hessian":[3.0574185E2,2.972141E2,8.527741E0,2.8314523E2,1.40688925E1,2.3862184E2,4.4523388E1,1.26741495E1,1.3947423E0,2.133928E2,2.5229036E1,4.350524E1,1.0181447E0,1.1617622E1,1.0565275E0],"tree_param":{"num_deleted":"0","num_feature":"31654","num_nodes":"15","size_leaf_vector":"0"}},{"base_weights":[1.2073752E-2,-1.8590817E-2,8.163379E-1,3.688918E-2,-5.358819E-1,1.4432855E0,-2.4303353E-1,-4.243754E-2,4.2426288E-1,-6.5514606E-1,1.2093242E0,4.0873396E-1,3.0445263E0,-7.404719E-1,5.7598394E-1,2.0448249E-2,-6.077405E-1,2.4462998E-1,1.2696508E0,-7.460722E-1,4.1162014E-1,-3.077767E-1,1.5474633E0],"categories":[],"categories_nodes":[],"categories_segments":[],"categories_sizes":[],"default_left":[1,1,1,1,1,1,1,1,1,1,0,1,0,0,0,0,0,0,0,0,0,0,0],"id":24,"left_children":[1,3,5,7,9,11,13,15,17,19,-1,21,-1,-1,-1,-1,-1,-1,-1,-1,-1,-1,-1],"loss_changes":[7.591303E0,8.540265E0,7.8589497E0,8.286183E0,6.7912607E0,1.0758822E1,2.487492E0,7.9841127E0,6.6483936E0,2.986806E0,0E0,5.010225E0,0E0,0E0,0E0,0E0,0E0,0E0,0E0,0E0,0E0,0E0,0E0],"parents":[2147483647,0,0,1,1,2,2,3,3,4,4,5,5,6,6,7,7,8,8,9,9,11,11],"right_children":[2,4,6,8,10,12,14,16,18,20,-1,22,-1,-1,-1,-1,-1,-1,-1,-1,-1,-1,-1],"split_conditions":[-9.536743E-7,-9.536743E-7,-9.536743E-7,-9.536743E-7,-9.536743E-7,-9.536743E-7,-9.536743E-7,-9.536743E-7,-9.536743E-7,-9.536743E-7,1.2093242E-1,-9.536743E-7,3.0445263E-1,-7.404719E-2,5.7598393E-2,2.0448249E-3,-6.0774054E-2,2.4462998E-2,1.2696509E-1,-7.4607216E-2,4.1162014E-2,-3.0777669E-2,1.5474634E-1],"split_indices":[7068,26315,26248,12712,5473,2976,6948,9,21711,11485,0,18639,0,0,0,0,0,0,0,0,0,0,0],"split_type":[0,0,0,0,0,0,0,0,0,0,0,0,0,0,0,0,0,0,0,0,0,0,0],"sum_hessian":[3.0619324E2,2.9588864E2,1.0304605E1,2.6806686E2,2.7821758E1,6.2458463E0,4.058758E0,2.232417E2,4.482518E1,2.6626738E1,1.1950196E0,4.556914E0,1.6889324E0,2.5847728E0,1.4739852E0,2.017611E2,2.1480606E1,3.8033066E1,6.7921143E0,2.4812464E1,1.8142744E0,3.244887E0,1.3120269E0],"tree_param":{"num_deleted":"0","num_feature":"31654","num_nodes":"23","size_leaf_vector":"0"}},{"base_weights":[1.1912589E-2,3.8400464E-2,-8.925152E-1,7.2258E-2,-6.517151E-1,1.3904811E-1,-3.0197403E-1,-8.4585774E-1,5.983086E-1,1.16850376E-1,1.5218155E0,-3.895132E-1,1.0887681E0,-9.182264E-1,-1.2408351E-2],"categories":[],"categories_nodes":[],"categories_segments":[],"categories_sizes":[],"default_left":[1,1,0,1,1,1,1,1,0,0,0,0,0,0,0],"id":25,"left_children":[1,3,-1,5,7,9,11,13,-1,-1,-1,-1,-1,-1,-1],"loss_changes":[7.388409E0,7.038187E0,0E0,7.193358E0,3.9260902E0,7.29522E0,5.737648E0,7.4932384E-1,0E0,0E0,0E0,0E0,0E0,0E0,0E0],"parents":[2147483647,0,0,1,1,3,3,4,4,5,5,6,6,7,7],"right_children":[2,4,-1,6,8,10,12,14,-1,-1,-1,-1,-1,-1,-1],"split_conditions":[-9.536743E-7,-9.536743E-7,-8.925152E-2,-9.536743E-7,-9.536743E-7,-9.536743E-7,-9.536743E-7,-9.536743E-7,5.9830863E-2,1.1685038E-2,1.5218155E-1,-3.895132E-2,1.0887682E-1,-9.182265E-2,-1.2408351E-3],"split_indices":[6,7,0,28847,26013,28020,7018,31345,0,0,0,0,0,0,0],"split_type":[0,0,0,0,0,0,0,0,0,0,0,0,0,0,0],"sum_hessian":[3.0598038E2,2.9820444E2,7.7759385E0,2.8511194E2,1.309249E1,2.4246675E2,4.26452E1,1.1612297E1,1.4801927E0,2.3970328E2,2.7634823E0,4.0797176E1,1.8480213E0,1.0590962E1,1.0213349E0],"tree_param":{"num_deleted":"0","num_feature":"31654","num_nodes":"15","size_leaf_vector":"0"}},{"base_weights":[1.05717005E-2,-7.302229E-3,1.2901891E0,-2.679765E-2,1.1736865E0,2.2257113E0,-2.3784731E-1,2.403242E-1,-1.3063622E-1,2.8250992E0,-2.07454E-1,1.8037163E-1,2.0301976E0,-1.6255881E-1,1.1030356E0,4.7392583E-1,-6.4702374E-1],"categories":[],"categories_nodes":[],"categories_segments":[],"categories_sizes":[],"default_left":[1,1,0,1,0,0,0,1,1,0,0,0,0,0,0,0,0],"id":26,"left_children":[1,3,5,7,9,-1,-1,11,13,-1,15,-1,-1,-1,-1,-1,-1],"loss_changes":[7.034671E0,7.0288873E0,6.586166E0,8.351632E0,1.1894186E1,0E0,0E0,8.681683E0,8.711253E0,0E0,1.3943161E0,0E0,0E0,0E0,0E0,0E0,0E0],"parents":[2147483647,0,0,1,1,2,2,3,3,4,4,7,7,8,8,10,10],"right_children":[2,4,6,8,10,-1,-1,12,14,-1,16,-1,-1,-1,-1,-1,-1],"split_conditions":[-9.536743E-7,-9.536743E-7,4.7872342E-2,-9.536743E-7,2.4173029E-2,2.2257113E-1,-2.3784732E-2,-9.536743E-7,-9.536743E-7,2.8250992E-1,2.0750988E-2,1.8037163E-2,2.0301977E-1,-1.6255882E-2,1.1030356E-1,4.7392584E-2,-6.470238E-2],"split_indices":[29895,28602,28,26238,5671,0,0,6623,1430,0,42,0,0,0,0,0,0],"split_type":[0,0,0,0,0,0,0,0,0,0,0,0,0,0,0,0,0],"sum_hessian":[3.061578E2,3.0292084E2,3.2369602E0,2.9896295E2,3.9578853E0,1.7245451E0,1.512415E0,8.331724E1,2.1564572E2,1.3264191E0,2.6314662E0,8.168204E1,1.6352012E0,2.1105273E2,4.5929885E0,1.0012554E0,1.6302108E0],"tree_param":{"num_deleted":"0","num_feature":"31654","num_nodes":"17","size_leaf_vector":"0"}},{"base_weights":[1.1444413E-2,4.0940944E-2,-7.493096E-1,2.132309E-2,1.1993023E0,-9.1105765E-1,4.3669757E-1,2.6736169E-3,1.2684612E0,3.0754275E0,-4.5692608E-1,-2.1896342E-2,1.066303E0,1.9586318E0,-1.551693E-1,-6.1426497E-1,-3.4350883E-2],"categories":[],"categories_nodes":[],"categories_segments":[],"categories_sizes":[],"default_left":[1,1,1,1,1,0,0,1,1,0,0,0,0,0,0,0,0],"id":27,"left_children":[1,3,5,7,9,-1,-1,11,13,-1,15,-1,-1,-1,-1,-1,-1],"loss_changes":[6.9154835E0,6.7079678E0,2.6046886E0,6.797258E0,1.6682587E1,0E0,0E0,7.5781965E0,4.534653E0,0E0,2.1040809E-1,0E0,0E0,0E0,0E0,0E0,0E0],"parents":[2147483647,0,0,1,1,2,2,3,3,4,4,7,7,8,8,10,10],"right_children":[2,4,6,8,10,-1,-1,12,14,-1,16,-1,-1,-1,-1,-1,-1],"split_conditions":[-9.536743E-7,-9.536743E-7,-9.536743E-7,-9.536743E-7,-9.536743E-7,-9.110577E-2,4.3669757E-2,-9.536743E-7,-9.536743E-7,3.0754277E-1,4.0300548E-2,-2.1896341E-3,1.066303E-1,1.9586317E-1,-1.5516929E-2,-6.1426498E-2,-3.4350883E-3],"split_indices":[12114,25300,6603,7029,25857,0,0,21213,26585,0,25,0,0,0,0,0,0],"split_type":[0,0,0,0,0,0,0,0,0,0,0,0,0,0,0,0,0],"sum_hessian":[3.0581497E2,2.9531113E2,1.0503842E1,2.9139453E2,3.9166102E0,9.447251E0,1.0565915E0,2.8808862E2,3.3058803E0,1.4346248E0,2.4819853E0,2.8254132E2,5.5473228E0,1.9733887E0,1.3324918E0,1.4780391E0,1.0039463E0],"tree_param":{"num_deleted":"0","num_feature":"31654","num_nodes":"17","size_leaf_vector":"0"}},{"base_weights":[1.1313199E-2,3.518346E-2,-8.8121426E-1,6.5213926E-2,-6.256617E-1,5.172027E-1,1.3113922E-2,-8.309111E-1,5.4353046E-1,2.1723188E-1,1.5901811E0,-3.0739358E-2,6.7565423E-1,-9.0873545E-1,-1.8483091E-2],"categories":[],"categories_nodes":[],"categories_segments":[],"categories_sizes":[],"default_left":[1,1,0,1,1,1,1,1,0,0,0,0,0,0,0],"id":28,"left_children":[1,3,-1,5,7,9,11,13,-1,-1,-1,-1,-1,-1,-1],"loss_changes":[6.565084E0,5.987842E0,0E0,6.7645526E0,3.6001358E0,9.211731E0,7.5416503E0,7.138705E-1,0E0,0E0,0E0,0E0,0E0,0E0,0E0],"parents":[2147483647,0,0,1,1,3,3,4,4,5,5,6,6,7,7],"right_children":[2,4,-1,6,8,10,12,14,-1,-1,-1,-1,-1,-1,-1],"split_conditions":[-9.536743E-7,-9.536743E-7,-8.812143E-2,3.816794E-3,-9.536743E-7,-9.536743E-7,-9.536743E-7,-9.536743E-7,5.4353047E-2,2.1723188E-2,1.5901811E-1,-3.0739359E-3,6.7565426E-2,-9.087355E-2,-1.8483092E-3],"split_indices":[6,7,0,5671,26013,26602,13,26387,0,0,0,0,0,0,0],"split_type":[0,0,0,0,0,0,0,0,0,0,0,0,0,0,0],"sum_hessian":[3.056943E2,2.9866714E2,7.027143E0,2.8654706E2,1.2120102E1,2.8693357E1,2.578537E2,1.0556294E1,1.5638081E0,2.3363985E1,5.3293734E0,2.427404E2,1.5113287E1,9.5253E0,1.0309938E0],"tree_param":{"num_deleted":"0","num_feature":"31654","num_nodes":"15","size_leaf_vector":"0"}},{"base_weights":[1.0030489E-2,-1.8228296E-2,7.1159565E-1,2.9325634E-2,-4.9960816E-1,1.2176144E0,-2.3506434E-1,6.9250064E-3,1.2402378E0,-6.760992E-1,6.656755E-1,3.705804E-1,2.3287337E0,-7.2457427E-1,5.0432855E-1,-1.39022935E-2,1.2527195E0,6.2422603E-2,1.7753646E0,-7.8148365E-1,5.358555E-1,-6.006294E-1,1.5408949E0,-2.9988465E-1,1.3544891E0,3.0203595E0,4.093329E-1],"categories":[],"categories_nodes":[],"categories_segments":[],"categories_sizes":[],"default_left":[1,1,1,1,1,1,1,1,0,1,1,1,1,0,0,0,0,0,0,0,0,0,0,0,0,0,0],"id":29,"left_children":[1,3,5,7,9,11,13,15,17,19,21,23,25,-1,-1,-1,-1,-1,-1,-1,-1,-1,-1,-1,-1,-1,-1],"loss_changes":[6.096545E0,6.789423E0,5.989768E0,7.3230343E0,5.933638E0,6.591792E0,2.1699271E0,6.9291763E0,2.979836E0,3.4396238E0,5.3708982E0,4.155665E0,3.060894E0,0E0,0E0,0E0,0E0,0E0,0E0,0E0,0E0,0E0,0E0,0E0,0E0,0E0,0E0],"parents":[2147483647,0,0,1,1,2,2,3,3,4,4,5,5,6,6,7,7,8,8,9,9,10,10,11,11,12,12],"right_children":[2,4,6,8,10,12,14,16,18,20,22,24,26,-1,-1,-1,-1,-1,-1,-1,-1,-1,-1,-1,-1,-1,-1],"split_conditions":[-9.536743E-7,-9.536743E-7,-9.536743E-7,-9.536743E-7,-9.536743E-7,-9.536743E-7,-9.536743E-7,-9.536743E-7,1.5492958E-1,-9.536743E-7,-9.536743E-7,1.02459015E-2,-9.536743E-7,-7.2457425E-2,5.0432857E-2,-1.3902293E-3,1.2527196E-1,6.2422603E-3,1.7753647E-1,-7.8148365E-2,5.3585548E-2,-6.006294E-2,1.540895E-1,-2.9988466E-2,1.3544892E-1,3.0203596E-1,4.0933292E-2],"split_indices":[7068,26315,26248,13173,5438,2976,6948,2207,5669,23301,25973,25,26149,0,0,0,0,0,0,0,0,0,0,0,0,0,0],"split_type":[0,0,0,0,0,0,0,0,0,0,0,0,0,0,0,0,0,0,0,0,0,0,0,0,0,0,0],"sum_hessian":[3.0585788E2,2.9495135E2,1.0906514E1,2.6928833E2,2.5663027E1,6.920874E0,3.9856403E0,2.653847E2,3.9036248E0,2.2652008E1,3.01102E0,4.6838093E0,2.2370648E0,2.4100952E0,1.5755451E0,2.6199353E2,3.3911898E0,1.5683447E0,2.33528E0,2.1166666E1,1.485341E0,1.3587952E0,1.6522247E0,3.1990743E0,1.4847348E0,1.222839E0,1.014226E0],"tree_param":{"num_deleted":"0","num_feature":"31654","num_nodes":"27","size_leaf_vector":"0"}},{"base_weights":[1.1000431E-2,-9.954515E-4,1.6250168E0,5.5034623E-2,-3.578547E-1,2.8935097E-2,1.1125728E0,-4.8131523E-1,1.0299608E0,-5.86275E-3,8.511089E-1,1.1010614E-2,2.0528908E0,-6.0065806E-1,8.2413316E-1,1.7215996E0,-1.7371199E-1],"categories":[],"categories_nodes":[],"categories_segments":[],"categories_sizes":[],"default_left":[1,1,0,1,1,1,1,1,0,0,0,0,0,0,0,0,0],"id":30,"left_children":[1,3,-1,5,7,9,11,13,15,-1,-1,-1,-1,-1,-1,-1,-1],"loss_changes":[5.9303412E0,6.117154E0,0E0,7.2665577E0,7.6090965E0,7.417618E0,6.546825E0,6.540823E0,3.387698E0,0E0,0E0,0E0,0E0,0E0,0E0,0E0,0E0],"parents":[2147483647,0,0,1,1,3,3,4,4,5,5,6,6,7,7,8,8],"right_children":[2,4,-1,6,8,10,12,14,16,-1,-1,-1,-1,-1,-1,-1,-1],"split_conditions":[-9.536743E-7,-9.536743E-7,1.6250168E-1,-9.536743E-7,-9.536743E-7,-9.536743E-7,5.769231E-2,-9.536743E-7,3.4810126E-2,-5.86275E-4,8.5110895E-2,1.1010615E-3,2.0528908E-1,-6.0065806E-2,8.2413316E-2,1.7215995E-1,-1.7371198E-2],"split_indices":[21785,26946,0,21213,22116,19670,41,11377,30,0,0,0,0,0,0,0,0],"split_type":[0,0,0,0,0,0,0,0,0,0,0,0,0,0,0,0,0],"sum_hessian":[3.0521118E2,3.039515E2,1.259681E0,2.6343555E2,4.0515945E1,2.580933E2,5.342256E0,3.7805904E1,2.7100418E0,2.4856583E2,9.52748E0,2.9261014E0,2.4161546E0,3.5133884E1,2.6720214E0,1.4478234E0,1.2622185E0],"tree_param":{"num_deleted":"0","num_feature":"31654","num_nodes":"17","size_leaf_vector":"0"}},{"base_weights":[1.1432361E-2,3.3146415E-2,-8.700403E-1,5.7899714E-2,-7.046638E-1,3.9205965E-2,1.104964E0,-8.9395213E-1,4.7445732E-1,1.575473E-1,-1.5214555E-1,2.2338173E0,-6.730751E-1],"categories":[],"categories_nodes":[],"categories_segments":[],"categories_sizes":[],"default_left":[1,1,0,1,1,1,1,0,0,0,0,0,0],"id":31,"left_children":[1,3,-1,5,7,9,11,-1,-1,-1,-1,-1,-1],"loss_changes":[5.8811693E0,5.508289E0,0E0,5.644315E0,2.6100383E0,6.5121007E0,1.16597595E1,0E0,0E0,0E0,0E0,0E0,0E0],"parents":[2147483647,0,0,1,1,3,3,4,4,5,5,6,6],"right_children":[2,4,-1,6,8,10,12,-1,-1,-1,-1,-1,-1],"split_conditions":[-9.536743E-7,-9.536743E-7,-8.700403E-2,-9.536743E-7,-9.536743E-7,3.6895674E-2,-9.536743E-7,-8.939522E-2,4.7445733E-2,1.575473E-2,-1.5214555E-2,2.2338174E-1,-6.730751E-2],"split_indices":[6,12114,0,26633,11945,5671,5065,0,0,0,0,0,0],"split_type":[0,0,0,0,0,0,0,0,0,0,0,0,0],"sum_hessian":[3.047589E2,2.9837128E2,6.3876324E0,2.8957758E2,8.793711E0,2.8551752E2,4.060039E0,7.7856956E0,1.0080155E0,1.7652335E2,1.0899419E2,2.3265843E0,1.7334548E0],"tree_param":{"num_deleted":"0","num_feature":"31654","num_nodes":"13","size_leaf_vector":"0"}},{"base_weights":[9.903921E-3,-4.320532E-3,1.2982042E0,-1.7772136E-2,1.4457567E0,2.2345378E0,-2.0257676E-1,-3.605953E-2,1.112237E0,-1.298735E-1,1.8240717E-1,2.0574197E-1,2.136683E0],"categories":[],"categories_nodes":[],"categories_segments":[],"categories_sizes":[],"default_left":[1,1,1,1,0,0,0,1,1,0,0,0,0],"id":32,"left_children":[1,3,5,7,-1,-1,-1,9,11,-1,-1,-1,-1],"loss_changes":[5.6158857E0,5.9516044E0,5.1555E0,6.28085E0,0E0,0E0,0E0,6.134467E0,4.055929E0,0E0,0E0,0E0,0E0],"parents":[2147483647,0,0,1,1,2,2,3,3,7,7,8,8],"right_children":[2,4,6,8,-1,-1,-1,10,12,-1,-1,-1,-1],"split_conditions":[-9.536743E-7,-9.536743E-7,-9.536743E-7,-9.536743E-7,1.4457567E-1,2.2345379E-1,-2.0257676E-2,-9.536743E-7,-9.536743E-7,-1.298735E-2,1.8240718E-2,2.0574197E-2,2.136683E-1],"split_indices":[22261,27637,25994,13522,0,0,0,23011,23355,0,0,0,0],"split_type":[0,0,0,0,0,0,0,0,0,0,0,0,0],"sum_hessian":[3.051481E2,3.0280145E2,2.3466618E0,3.00997E2,1.804447E0,1.144004E0,1.2026579E0,2.971561E2,3.8409078E0,2.0816948E2,8.898661E1,2.674857E0,1.1660508E0],"tree_param":{"num_deleted":"0","num_feature":"31654","num_nodes":"13","size_leaf_vector":"0"}},{"base_weights":[1.0531252E-2,-5.680861E-3,1.0699358E0,2.076968E-1,-9.07894E-2,1.6657369E0,-5.2272075E-1,1.392993E-1,1.4331398E0,-1.2327112E-1,1.020114E0,2.557212E0,-1.2528779E-1,-4.5858747E-1,3.4156406E-1,2.5188668E0,-2.8457272E-1,-1.8641567E-1,5.2850235E-1,2.03455E0,-4.4679612E-1],"categories":[],"categories_nodes":[],"categories_segments":[],"categories_sizes":[],"default_left":[1,1,0,1,1,1,0,0,1,1,1,0,0,0,0,0,0,0,0,0,0],"id":33,"left_children":[1,3,5,7,9,11,-1,13,15,17,19,-1,-1,-1,-1,-1,-1,-1,-1,-1,-1],"loss_changes":[5.257597E0,5.5059457E0,5.248822E0,7.046938E0,7.944851E0,6.0629034E0,0E0,1.0193228E1,9.039749E0,8.800024E0,1.0229898E1,0E0,0E0,0E0,0E0,0E0,0E0,0E0,0E0,0E0,0E0],"parents":[2147483647,0,0,1,1,2,2,3,3,4,4,5,5,7,7,8,8,9,9,10,10],"right_children":[2,4,6,8,10,12,-1,14,16,18,20,-1,-1,-1,-1,-1,-1,-1,-1,-1,-1],"split_conditions":[-9.536743E-7,-9.536743E-7,7.594937E-2,-9.536743E-7,-9.536743E-7,-9.536743E-7,-5.2272078E-2,2.9220778E-2,-9.536743E-7,-9.536743E-7,2.9220778E-2,2.557212E-1,-1.2528779E-2,-4.585875E-2,3.415641E-2,2.518867E-1,-2.8457273E-2,-1.8641567E-2,5.2850235E-2,2.03455E-1,-4.4679612E-2],"split_indices":[29895,26238,30,999,1430,12858,0,31,21248,3835,31,0,0,0,0,0,0,0,0,0,0],"split_type":[0,0,0,0,0,0,0,0,0,0,0,0,0,0,0,0,0,0,0,0,0],"sum_hessian":[3.04762E2,3.0114813E2,3.6138453E0,8.545685E1,2.156913E2,2.5965931E0,1.0172522E0,8.199406E1,3.462786E0,2.1042763E2,5.263662E0,1.4480428E0,1.1485503E0,2.0406368E1,6.1587692E1,1.835929E0,1.6268568E0,1.924927E2,1.7934925E1,2.882983E0,2.3806791E0],"tree_param":{"num_deleted":"0","num_feature":"31654","num_nodes":"21","size_leaf_vector":"0"}},{"base_weights":[1.0571887E-2,3.027762E-2,-8.581559E-1,7.336202E-2,-3.8148624E-1,1.1662745E-1,-4.4298744E-1,-5.431503E-1,8.3512753E-1,1.5232068E-1,-5.9808075E-1,-6.554881E-1,1.5612339E0,-6.445634E-1,9.417963E-1,1.6872212E0,-5.4791653E-1],"categories":[],"categories_nodes":[],"categories_segments":[],"categories_sizes":[],"default_left":[1,1,0,1,1,1,1,1,1,0,0,0,0,0,0,0,0],"id":34,"left_children":[1,3,-1,5,7,9,11,13,15,-1,-1,-1,-1,-1,-1,-1,-1],"loss_changes":[5.2560163E0,5.3448715E0,0E0,6.1315556E0,6.06885E0,6.517194E0,1.0073384E1,4.4933987E0,5.3352885E0,0E0,0E0,0E0,0E0,0E0,0E0,0E0,0E0],"parents":[2147483647,0,0,1,1,3,3,4,4,5,5,6,6,7,7,8,8],"right_children":[2,4,-1,6,8,10,12,14,16,-1,-1,-1,-1,-1,-1,-1,-1],"split_conditions":[-9.536743E-7,-9.536743E-7,-8.581559E-2,-9.536743E-7,-9.536743E-7,-9.536743E-7,-9.536743E-7,-9.536743E-7,-9.536743E-7,1.52320685E-2,-5.9808075E-2,-6.554881E-2,1.5612338E-1,-6.4456336E-2,9.417963E-2,1.6872212E-1,-5.4791655E-2],"split_indices":[6,9,0,8,28482,7,23022,25759,22092,0,0,0,0,0,0,0,0],"split_type":[0,0,0,0,0,0,0,0,0,0,0,0,0,0,0,0,0],"sum_hessian":[3.0451193E2,2.987015E2,5.81043E0,2.7115173E2,2.754979E1,2.5090248E2,2.0249235E1,2.4806984E1,2.7428048E0,2.3971764E2,1.1184856E1,1.8916529E1,1.3327079E0,2.3750875E1,1.0561092E0,1.5610863E0,1.1817186E0],"tree_param":{"num_deleted":"0","num_feature":"31654","num_nodes":"17","size_leaf_vector":"0"}},{"base_weights":[9.206922E-3,3.84144E-2,-5.516757E-1,7.884421E-2,-4.2445672E-1,-7.8446025E-1,7.292396E-1,7.0807785E-3,4.140242E-1,-5.749984E-1,1.4868602E0,-9.2755914E-1,4.5084277E-1,9.391721E-2,-4.760268E-1,1.7653745E0,2.4957128E-1,-6.9000196E-1,9.4522065E-1],"categories":[],"categories_nodes":[],"categories_segments":[],"categories_sizes":[],"default_left":[1,1,1,0,1,1,0,1,1,1,0,0,0,0,0,0,0,0,0],"id":35,"left_children":[1,3,5,7,9,11,-1,13,15,17,-1,-1,-1,-1,-1,-1,-1,-1,-1],"loss_changes":[5.029194E0,5.4886446E0,5.1032605E0,6.465885E0,7.637699E0,2.7764988E0,0E0,9.379906E0,1.00951E1,4.5986724E0,0E0,0E0,0E0,0E0,0E0,0E0,0E0,0E0,0E0],"parents":[2147483647,0,0,1,1,2,2,3,3,4,4,5,5,7,7,8,8,9,9],"right_children":[2,4,6,8,10,12,-1,14,16,18,-1,-1,-1,-1,-1,-1,-1,-1,-1],"split_conditions":[-9.536743E-7,-9.536743E-7,-9.536743E-7,1.8838027E-1,-9.536743E-7,-9.536743E-7,7.292396E-2,-9.536743E-7,-9.536743E-7,-9.536743E-7,1.4868602E-1,-9.2755914E-2,4.508428E-2,9.391721E-3,-4.760268E-2,1.7653745E-1,2.4957128E-2,-6.90002E-2,9.452207E-2],"split_indices":[31246,23678,4149,5669,2591,6623,0,26079,26713,11744,0,0,0,0,0,0,0,0,0],"split_type":[0,0,0,0,0,0,0,0,0,0,0,0,0,0,0,0,0,0,0],"sum_hessian":[3.047021E2,2.9050577E2,1.4196327E1,2.6793265E2,2.2573109E1,1.2341117E1,1.8552102E0,2.2152446E2,4.640819E1,2.1573101E1,1.000008E0,1.1283185E1,1.0579321E0,1.8845595E2,3.306852E1,3.9787753E0,4.2429417E1,2.0563595E1,1.0095055E0],"tree_param":{"num_deleted":"0","num_feature":"31654","num_nodes":"19","size_leaf_vector":"0"}},{"base_weights":[8.734273E-3,3.1351082E-2,-7.1053255E-1,5.4815456E-2,-6.924915E-1,-8.997057E-1,3.9252606E-1,3.8132746E-2,1.1552246E0,-8.873762E-1,4.6665698E-1,2.0826324E-3,5.76878E-1,1.6845775E0,-1.3252033E-1],"categories":[],"categories_nodes":[],"categories_segments":[],"categories_sizes":[],"default_left":[1,1,1,1,1,0,0,1,1,0,0,0,0,0,0],"id":36,"left_children":[1,3,5,7,9,-1,-1,11,13,-1,-1,-1,-1,-1,-1],"loss_changes":[4.994422E0,5.0872593E0,2.3063335E0,5.259165E0,2.5393229E0,0E0,0E0,5.5456867E0,3.1408114E0,0E0,0E0,0E0,0E0,0E0,0E0],"parents":[2147483647,0,0,1,1,2,2,3,3,4,4,7,7,8,8],"right_children":[2,4,6,8,10,-1,-1,12,14,-1,-1,-1,-1,-1,-1],"split_conditions":[-9.536743E-7,-9.536743E-7,-9.536743E-7,-9.536743E-7,-9.536743E-7,-8.9970574E-2,3.9252605E-2,-9.536743E-7,-9.536743E-7,-8.873762E-2,4.66657E-2,2.0826324E-4,5.76878E-2,1.6845775E-1,-1.3252034E-2],"split_indices":[13331,12114,6676,28020,25905,0,0,6623,11567,0,0,0,0,0,0],"split_type":[0,0,0,0,0,0,0,0,0,0,0,0,0,0,0],"sum_hessian":[3.0464868E2,2.962885E2,8.360159E0,2.8788074E2,8.407786E0,7.2936597E0,1.0664995E0,2.846007E2,3.2800248E0,7.398375E0,1.0094118E0,2.67692E2,1.690873E1,2.1061072E0,1.1739175E0],"tree_param":{"num_deleted":"0","num_feature":"31654","num_nodes":"15","size_leaf_vector":"0"}},{"base_weights":[7.919675E-3,-3.0582491E-3,1.4644578E0,2.0184167E-2,-7.827215E-1,8.210092E-3,1.5046458E0,-8.785851E-1,-1.952113E-2,-2.9413836E-2,4.8510867E-1],"categories":[],"categories_nodes":[],"categories_segments":[],"categories_sizes":[],"default_left":[1,1,0,1,1,1,0,0,0,0,0],"id":37,"left_children":[1,3,-1,5,7,9,-1,-1,-1,-1,-1],"loss_changes":[4.8924036E0,5.5319457E0,0E0,5.259107E0,6.293864E-1,5.3109384E0,0E0,0E0,0E0,0E0,0E0],"parents":[2147483647,0,0,1,1,3,3,4,4,5,5],"right_children":[2,4,-1,6,8,10,-1,-1,-1,-1,-1],"split_conditions":[-9.536743E-7,-9.536743E-7,1.4644578E-1,-9.536743E-7,-9.536743E-7,-9.536743E-7,1.5046458E-1,-8.785851E-2,-1.952113E-3,-2.9413837E-3,4.8510868E-2],"split_indices":[1403,12114,0,11863,3864,25871,0,0,0,0,0],"split_type":[0,0,0,0,0,0,0,0,0,0,0],"sum_hessian":[3.0469083E2,3.0340198E2,1.2888399E0,2.9556506E2,7.8369308E0,2.941975E2,1.3675473E0,6.828088E0,1.0088431E0,2.7355432E2,2.064318E1],"tree_param":{"num_deleted":"0","num_feature":"31654","num_nodes":"11","size_leaf_vector":"0"}},{"base_weights":[7.7242404E-3,-8.117148E-3,9.9702126E-1,1.4179315E-2,-7.837874E-1,-5.549795E-1,1.6231157E0,5.41804E-2,-4.2463267E-1,-8.857106E-1,-1.3223E-2,2.5394088E-1,2.2274606E0,3.28437E-2,1.1734204E0,-7.217441E-1,2.259533E-1],"categories":[],"categories_nodes":[],"categories_segments":[],"categories_sizes":[],"default_left":[1,1,0,1,1,0,1,1,1,0,0,0,0,0,0,0,0],"id":38,"left_children":[1,3,5,7,9,-1,11,13,15,-1,-1,-1,-1,-1,-1,-1,-1],"loss_changes":[4.796864E0,5.2296424E0,5.588183E0,5.1887107E0,6.5185165E-1,0E0,2.48938E0,6.4234743E0,4.937311E0,0E0,0E0,0E0,0E0,0E0,0E0,0E0,0E0],"parents":[2147483647,0,0,1,1,2,2,3,3,4,4,6,6,7,7,8,8],"right_children":[2,4,6,8,10,-1,12,14,16,-1,-1,-1,-1,-1,-1,-1,-1],"split_conditions":[-9.536743E-7,-9.536743E-7,3.0632412E-2,-9.536743E-7,-9.536743E-7,-5.549795E-2,-9.536743E-7,-9.536743E-7,-9.536743E-7,-8.8571064E-2,-1.3223E-3,2.5394088E-2,2.2274606E-1,3.2843703E-3,1.1734205E-1,-7.2174415E-2,2.259533E-2],"split_indices":[7029,13331,42,26315,11524,0,23011,21720,18,0,0,0,0,0,0,0,0],"split_type":[0,0,0,0,0,0,0,0,0,0,0,0,0,0,0,0,0],"sum_hessian":[3.0456537E2,3.0074146E2,3.8239098E0,2.9329257E2,7.448907E0,1.1318345E0,2.6920753E0,2.6959357E2,2.3698996E1,6.4467583E0,1.002149E0,1.2592872E0,1.432788E0,2.655604E2,4.033181E0,1.6194067E1,7.504929E0],"tree_param":{"num_deleted":"0","num_feature":"31654","num_nodes":"17","size_leaf_vector":"0"}},{"base_weights":[7.097884E-3,-9.8532345E-3,9.268597E-1,-1.8269494E-1,9.751763E-2,2.241729E0,-4.6977153E-1,-2.3441274E-1,1.641894E0,1.8808678E-1,-4.0629148E-1,-6.214951E-1,-4.555085E-2,-2.735925E-1,1.3584932E0,2.4286597E0,-5.113282E-2,1.1319731E-1,9.288582E-1,-5.116801E-1,9.437552E-1],"categories":[],"categories_nodes":[],"categories_segments":[],"categories_sizes":[],"default_left":[1,1,1,1,1,0,1,1,1,1,1,0,0,0,0,0,0,0,0,0,0],"id":39,"left_children":[1,3,5,7,9,-1,11,13,15,17,19,-1,-1,-1,-1,-1,-1,-1,-1,-1,-1],"loss_changes":[4.7747064E0,5.606053E0,1.1230171E1,1.130561E1,8.58131E0,0E0,1.9787562E-1,7.4498878E0,4.539649E0,8.697346E0,4.5688634E0,0E0,0E0,0E0,0E0,0E0,0E0,0E0,0E0,0E0,0E0],"parents":[2147483647,0,0,1,1,2,2,3,3,4,4,6,6,7,7,8,8,9,9,10,10],"right_children":[2,4,6,8,10,-1,12,14,16,18,20,-1,-1,-1,-1,-1,-1,-1,-1,-1,-1],"split_conditions":[-9.536743E-7,-9.536743E-7,-9.536743E-7,-9.536743E-7,-9.536743E-7,2.241729E-1,-9.536743E-7,-9.536743E-7,-9.536743E-7,-9.536743E-7,-9.536743E-7,-6.2149514E-2,-4.555085E-3,-2.7359251E-2,1.3584933E-1,2.4286596E-1,-5.1132822E-3,1.1319731E-2,9.288582E-2,-5.1168013E-2,9.437552E-2],"split_indices":[25300,18,25857,3054,2244,0,6948,1449,29582,25975,3917,0,0,0,0,0,0,0,0,0,0],"split_type":[0,0,0,0,0,0,0,0,0,0,0,0,0,0,0,0,0,0,0,0,0],"sum_hessian":[3.0466202E2,3.0012015E2,4.5418973E0,1.1473017E2,1.8538997E2,2.0277545E0,2.5141425E0,1.1241529E2,2.3148754E0,1.5767212E2,2.7717852E1,1.5093074E0,1.0048352E0,1.1052502E2,1.8902762E0,1.283782E0,1.0310934E0,1.4424251E2,1.3429614E1,2.6286816E1,1.4310353E0],"tree_param":{"num_deleted":"0","num_feature":"31654","num_nodes":"21","size_leaf_vector":"0"}},{"base_weights":[7.7712596E-3,-3.4911267E-3,1.3851742E0,4.018162E-2,-3.8552594E-1,1.9937057E-2,1.2499462E0,-5.788229E-1,1.0391389E0,3.5674325E-3,1.3798913E0,1.7603772E0,-1.503492E-1,-7.515177E-1,5.098961E-1,-1.5652645E-1,1.5655789E0],"categories":[],"categories_nodes":[],"categories_segments":[],"categories_sizes":[],"default_left":[1,1,0,1,1,1,0,1,1,0,0,0,0,0,0,0,0],"id":40,"left_children":[1,3,-1,5,7,9,11,13,15,-1,-1,-1,-1,-1,-1,-1,-1],"loss_changes":[4.739464E0,5.0830636E0,0E0,6.672813E0,9.208184E0,6.005595E0,3.4702663E0,5.678096E0,2.8204904E0,0E0,0E0,0E0,0E0,0E0,0E0,0E0,0E0],"parents":[2147483647,0,0,1,1,3,3,4,4,5,5,6,6,7,7,8,8],"right_children":[2,4,-1,6,8,10,12,14,16,-1,-1,-1,-1,-1,-1,-1,-1],"split_conditions":[-9.536743E-7,-9.536743E-7,1.3851742E-1,-9.536743E-7,-9.536743E-7,-9.536743E-7,1.4964789E-1,-9.536743E-7,-9.536743E-7,3.5674326E-4,1.3798913E-1,1.7603771E-1,-1.5034921E-2,-7.515177E-2,5.098961E-2,-1.5652645E-2,1.565579E-1],"split_indices":[10957,3547,0,13522,18272,22261,5669,6665,660,0,0,0,0,0,0,0,0],"split_type":[0,0,0,0,0,0,0,0,0,0,0,0,0,0,0,0,0],"sum_hessian":[3.0420697E2,3.0272916E2,1.4778109E0,2.7247562E2,3.025354E1,2.6899072E2,3.4848912E0,2.716195E1,3.0915906E0,2.6678214E2,2.208605E0,2.3654852E0,1.1194059E0,2.3710642E1,3.4513063E0,1.1598886E0,1.931702E0],"tree_param":{"num_deleted":"0","num_feature":"31654","num_nodes":"17","size_leaf_vector":"0"}},{"base_weights":[8.378214E-3,2.5921244E-2,-8.4276384E-1,6.610234E-2,-3.5682863E-1,4.374215E-2,1.1891626E0,-6.6631967E-1,2.4858144E-1,2.1821978E-2,1.2819246E0,1.9419346E0,-6.0326874E-1,-8.3237964E-1,1.6062132E-1,1.1419284E0,-2.6720372E-1],"categories":[],"categories_nodes":[],"categories_segments":[],"categories_sizes":[],"default_left":[1,1,0,1,0,1,1,1,0,0,0,0,0,0,0,0,0],"id":41,"left_children":[1,3,-1,5,7,9,11,13,15,-1,-1,-1,-1,-1,-1,-1,-1],"loss_changes":[4.571989E0,4.6304355E0,0E0,6.7767253E0,5.5272503E0,7.236709E0,8.282713E0,2.771245E0,5.1009765E0,0E0,0E0,0E0,0E0,0E0,0E0,0E0,0E0],"parents":[2147483647,0,0,1,1,3,3,4,4,5,5,6,6,7,7,8,8],"right_children":[2,4,-1,6,8,10,12,14,16,-1,-1,-1,-1,-1,-1,-1,-1],"split_conditions":[-9.536743E-7,-9.536743E-7,-8.4276386E-2,-9.536743E-7,1.8838027E-1,-9.536743E-7,-9.536743E-7,-9.536743E-7,5.216285E-2,2.1821978E-3,1.2819247E-1,1.9419347E-1,-6.0326874E-2,-8.323797E-2,1.6062131E-2,1.1419284E-1,-2.6720373E-2],"split_indices":[6,11542,0,13208,5669,26633,26450,6176,5671,0,0,0,0,0,0,0,0],"split_type":[0,0,0,0,0,0,0,0,0,0,0,0,0,0,0,0,0],"sum_hessian":[3.037323E2,2.9854843E2,5.1838856E0,2.7093314E2,2.7615276E1,2.666628E2,4.2703223E0,1.8207056E1,9.40822E0,2.63024E2,3.638823E0,2.948588E0,1.3217342E0,1.5156806E1,3.0502505E0,2.9993477E0,6.4088726E0],"tree_param":{"num_deleted":"0","num_feature":"31654","num_nodes":"17","size_leaf_vector":"0"}},{"base_weights":[7.673689E-3,2.6673032E-2,-7.587046E-1,5.7365786E-2,-4.7329703E-1,-8.706641E-1,-2.5337998E-2,4.414194E-2,1.742267E0,-6.5779513E-1,7.9081804E-1,2.5650797E-2,1.2256696E0,-8.1877875E-1,8.0277044E-1],"categories":[],"categories_nodes":[],"categories_segments":[],"categories_sizes":[],"default_left":[1,1,1,1,1,0,0,1,0,1,0,0,0,0,0],"id":42,"left_children":[1,3,5,7,9,-1,-1,11,-1,13,-1,-1,-1,-1,-1],"loss_changes":[4.4568477E0,4.6045938E0,5.859456E-1,6.204785E0,4.56923E0,0E0,0E0,6.1026044E0,0E0,4.3477817E0,0E0,0E0,0E0,0E0,0E0],"parents":[2147483647,0,0,1,1,2,2,3,3,4,4,7,7,9,9],"right_children":[2,4,6,8,10,-1,-1,12,-1,14,-1,-1,-1,-1,-1],"split_conditions":[-9.536743E-7,-9.536743E-7,-9.536743E-7,-9.536743E-7,-9.536743E-7,-8.706641E-2,-2.5337997E-3,-9.536743E-7,1.742267E-1,-9.536743E-7,7.90818E-2,2.5650798E-3,1.2256696E-1,-8.187788E-2,8.027705E-2],"split_indices":[26491,31039,2378,10957,14,0,0,28585,0,17655,0,0,0,0,0],"split_type":[0,0,0,0,0,0,0,0,0,0,0,0,0,0,0],"sum_hessian":[3.0369797E2,2.9729297E2,6.405017E0,2.8093204E2,1.6360928E1,5.3942823E0,1.0107346E0,2.7976254E2,1.1695007E0,1.4695721E1,1.6652064E0,2.7645764E2,3.3049073E0,1.3632549E1,1.0631707E0],"tree_param":{"num_deleted":"0","num_feature":"31654","num_nodes":"15","size_leaf_vector":"0"}},{"base_weights":[7.4980124E-3,-3.1225705E-1,5.270931E-2,-4.5270753E-1,9.85999E-1,8.640797E-2,-6.8327457E-1,-6.2609285E-1,6.3868594E-1,-6.239727E-1,2.3645706E0,6.561773E-2,1.1293912E0,-8.304398E-1,4.2579955E-1,-7.312955E-1,3.179753E-1,-4.1649953E-1,1.3768891E0,2.9297462E-1,-3.47671E-2,1.8897078E0,-2.7499005E-1,-9.087755E-1,-4.133939E-2],"categories":[],"categories_nodes":[],"categories_segments":[],"categories_sizes":[],"default_left":[0,1,1,1,1,1,1,1,0,0,0,1,1,1,0,0,0,0,0,0,0,0,0,0,0],"id":43,"left_children":[1,3,5,7,9,11,13,15,17,-1,-1,19,21,23,-1,-1,-1,-1,-1,-1,-1,-1,-1,-1,-1],"loss_changes":[4.4205036E0,7.353917E0,6.699877E0,6.9983416E0,1.038184E1,5.4969597E0,2.2853374E0,3.2711363E0,4.6825695E0,0E0,0E0,5.7836E0,5.8153505E0,6.2927866E-1,0E0,0E0,0E0,0E0,0E0,0E0,0E0,0E0,0E0,0E0,0E0],"parents":[2147483647,0,0,1,1,2,2,3,3,4,4,5,5,6,6,7,7,8,8,11,11,12,12,13,13],"right_children":[2,4,6,8,10,12,14,16,18,-1,-1,20,22,24,-1,-1,-1,-1,-1,-1,-1,-1,-1,-1,-1],"split_conditions":[9.7402595E-3,-9.536743E-7,-9.536743E-7,-9.536743E-7,-9.536743E-7,-9.536743E-7,-9.536743E-7,-9.536743E-7,6.979876E-1,-6.239727E-2,2.3645706E-1,-9.536743E-7,2.9220778E-2,-9.536743E-7,4.2579956E-2,-7.312956E-2,3.1797532E-2,-4.1649953E-2,1.3768892E-1,2.9297462E-2,-3.4767098E-3,1.8897079E-1,-2.7499005E-2,-9.0877555E-2,-4.1339393E-3],"split_indices":[31,24353,18975,11600,26162,1521,10999,2648,24,0,0,26238,31,11591,0,0,0,0,0,0,0,0,0,0,0],"split_type":[0,0,0,0,0,0,0,0,0,0,0,0,0,0,0,0,0,0,0,0,0,0,0,0,0],"sum_hessian":[3.036403E2,3.688265E1,2.6675766E2,3.3869778E1,3.0128713E0,2.5592227E2,1.0835375E1,2.9594545E1,4.2752314E0,1.642291E0,1.3705802E0,2.519627E2,3.9595675E0,9.787839E0,1.0475364E0,2.6830101E1,2.7644448E0,1.9391744E0,2.3360572E0,7.658667E1,1.7537604E2,2.3446302E0,1.6149374E0,8.765963E0,1.0218762E0],"tree_param":{"num_deleted":"0","num_feature":"31654","num_nodes":"25","size_leaf_vector":"0"}},{"base_weights":[7.160548E-3,-3.8263823E-3,1.3259904E0,5.5274293E-2,-2.712827E-1,-3.6885327E-4,5.094871E-1,-4.0766066E-1,4.3246967E-1,-3.2690555E-2,9.546648E-1,-3.358423E-1,8.423443E-1,-5.1421046E-1,6.745987E-1,1.8843921E0,-5.7228923E-2],"categories":[],"categories_nodes":[],"categories_segments":[],"categories_sizes":[],"default_left":[1,1,0,1,1,1,1,1,1,0,0,0,0,0,0,0,0],"id":44,"left_children":[1,3,-1,5,7,9,11,13,15,-1,-1,-1,-1,-1,-1,-1,-1],"loss_changes":[4.4195075E0,4.8066216E0,0E0,6.2960234E0,5.4579935E0,6.9123144E0,7.932552E0,5.722015E0,6.8043833E0,0E0,0E0,0E0,0E0,0E0,0E0,0E0,0E0],"parents":[2147483647,0,0,1,1,3,3,4,4,5,5,6,6,7,7,8,8],"right_children":[2,4,-1,6,8,10,12,14,16,-1,-1,-1,-1,-1,-1,-1,-1],"split_conditions":[-9.536743E-7,-9.536743E-7,1.3259904E-1,-9.536743E-7,-9.536743E-7,-9.536743E-7,-9.536743E-7,3.362676E-1,-9.536743E-7,-3.2690556E-3,9.546649E-2,-3.3584233E-2,8.423443E-2,-5.1421046E-2,6.7459874E-2,1.8843922E-1,-5.7228925E-3],"split_indices":[21785,1444,0,6812,7121,26462,25870,5669,26541,0,0,0,0,0,0,0,0],"split_type":[0,0,0,0,0,0,0,0,0,0,0,0,0,0,0,0,0],"sum_hessian":[3.0365607E2,3.021361E2,1.519942E0,2.4810492E2,5.4031204E1,2.2191812E2,2.6186796E1,4.5612778E1,8.418426E0,2.1558765E2,6.3304744E0,7.3956685E0,1.8791128E1,4.2002457E1,3.6103208E0,1.4049072E0,7.0135183E0],"tree_param":{"num_deleted":"0","num_feature":"31654","num_nodes":"17","size_leaf_vector":"0"}},{"base_weights":[7.403457E-3,3.062469E-2,-5.8977324E-1,8.112032E-2,-3.291289E-1,-8.933267E-1,1.1179586E-1,5.752457E-2,9.8683053E-1,-5.061564E-1,7.857413E-1,-6.173172E-1,7.061995E-1,2.4746666E-2,7.933432E-1,1.627833E0,-1.9683051E-1,-6.241977E-1,7.0172465E-1,1.5765793E0,-3.6562595E-1],"categories":[],"categories_nodes":[],"categories_segments":[],"categories_sizes":[],"default_left":[1,1,1,1,1,0,1,1,1,1,1,0,0,0,0,0,0,0,0,0,0],"id":45,"left_children":[1,3,5,7,9,-1,11,13,15,17,19,-1,-1,-1,-1,-1,-1,-1,-1,-1,-1],"loss_changes":[4.2382417E0,5.365471E0,2.5362298E0,5.467984E0,7.576E0,0E0,2.3184998E0,6.0827403E0,5.2536983E0,4.999913E0,5.471242E0,0E0,0E0,0E0,0E0,0E0,0E0,0E0,0E0,0E0,0E0],"parents":[2147483647,0,0,1,1,2,2,3,3,4,4,6,6,7,7,8,8,9,9,10,10],"right_children":[2,4,6,8,10,-1,12,14,16,18,20,-1,-1,-1,-1,-1,-1,-1,-1,-1,-1],"split_conditions":[-9.536743E-7,-9.536743E-7,-9.536743E-7,-9.536743E-7,-9.536743E-7,-8.933267E-2,-9.536743E-7,-9.536743E-7,-9.536743E-7,-9.536743E-7,-9.536743E-7,-6.1731722E-2,7.0619956E-2,2.4746666E-3,7.933432E-2,1.6278331E-1,-1.9683052E-2,-6.2419772E-2,7.017247E-2,1.5765794E-1,-3.6562596E-2],"split_indices":[23131,26946,7945,21213,24883,0,18970,19670,12443,638,26475,0,0,0,0,0,0,0,0,0,0],"split_type":[0,0,0,0,0,0,0,0,0,0,0,0,0,0,0,0,0,0,0,0,0],"sum_hessian":[3.0332867E2,2.9288843E2,1.0440257E1,2.5751733E2,3.5371063E1,7.0964518E0,3.3438048E0,2.520153E2,5.502041E0,3.0995378E1,4.3756857E0,1.4844213E0,1.8593836E0,2.4225731E2,9.758004E0,3.3257527E0,2.1762884E0,2.8676199E1,2.3191798E0,2.375037E0,2.0006487E0],"tree_param":{"num_deleted":"0","num_feature":"31654","num_nodes":"21","size_leaf_vector":"0"}},{"base_weights":[6.9679543E-3,-3.592614E-3,1.308989E0,1.6419154E-2,-8.7759024E-1,3.653726E-2,-7.6588696E-1,-4.4309944E-2,2.46036E-1,-8.784749E-1,-2.3611976E-2],"categories":[],"categories_nodes":[],"categories_segments":[],"categories_sizes":[],"default_left":[1,1,0,1,0,1,1,0,0,0,0],"id":46,"left_children":[1,3,-1,5,-1,7,9,-1,-1,-1,-1],"loss_changes":[4.1876564E0,5.3097997E0,0E0,4.701806E0,0E0,4.930808E0,6.05288E-1,0E0,0E0,0E0,0E0],"parents":[2147483647,0,0,1,1,3,3,5,5,6,6],"right_children":[2,4,-1,6,-1,8,10,-1,-1,-1,-1],"split_conditions":[-9.536743E-7,-9.536743E-7,1.3089891E-1,-9.536743E-7,-8.7759025E-2,-9.536743E-7,-9.536743E-7,-4.4309944E-3,2.46036E-2,-8.784749E-2,-2.3611977E-3],"split_indices":[10906,26491,0,20825,0,6722,3778,0,0,0,0],"split_type":[0,0,0,0,0,0,0,0,0,0,0],"sum_hessian":[3.0321295E2,3.0176263E2,1.450327E0,2.9596713E2,5.795493E0,2.8947614E2,6.490992E0,2.0944006E2,8.003607E1,5.476786E0,1.0142058E0],"tree_param":{"num_deleted":"0","num_feature":"31654","num_nodes":"11","size_leaf_vector":"0"}},{"base_weights":[5.940423E-3,3.117616E-2,-5.226305E-1,7.1339145E-2,-3.7634954E-1,-8.3807117E-1,6.310407E-1,5.10522E-2,1.1521964E0,-6.134161E-1,4.4248378E-1,-2.7212719E-2,-9.175656E-1,1.4149861E0,-5.451285E-1,3.1702723E-2,1.2029521E0,1.7991515E0,-5.433729E-1,-8.1847334E-1,5.0514376E-1,1.813712E0,-5.989262E-1],"categories":[],"categories_nodes":[],"categories_segments":[],"categories_sizes":[],"default_left":[1,1,1,1,1,1,1,1,1,1,0,0,0,0,0,0,0,0,0,0,0,0,0],"id":47,"left_children":[1,3,5,7,9,11,13,15,17,19,21,-1,-1,-1,-1,-1,-1,-1,-1,-1,-1,-1,-1],"loss_changes":[4.0759554E0,4.7967052E0,5.596283E0,5.7764645E0,5.377405E0,7.075677E-1,4.0541496E0,5.8073626E0,6.304983E0,5.188214E0,1.0349067E1,0E0,0E0,0E0,0E0,0E0,0E0,0E0,0E0,0E0,0E0,0E0,0E0],"parents":[2147483647,0,0,1,1,2,2,3,3,4,4,5,5,6,6,7,7,8,8,9,9,10,10],"right_children":[2,4,6,8,10,12,14,16,18,20,22,-1,-1,-1,-1,-1,-1,-1,-1,-1,-1,-1,-1],"split_conditions":[-9.536743E-7,-9.536743E-7,-9.536743E-7,-9.536743E-7,-9.536743E-7,1.1450382E-2,-9.536743E-7,-9.536743E-7,-9.536743E-7,-9.536743E-7,4.7872342E-2,-2.721272E-3,-9.175656E-2,1.4149861E-1,-5.4512855E-2,3.1702723E-3,1.2029522E-1,1.7991516E-1,-5.4337293E-2,-8.184733E-2,5.0514378E-2,1.813712E-1,-5.989262E-2],"split_indices":[21250,11542,21711,26633,23634,5671,26230,9479,5065,7007,28,0,0,0,0,0,0,0,0,0,0,0,0],"split_type":[0,0,0,0,0,0,0,0,0,0,0,0,0,0,0,0,0,0,0,0,0,0,0],"sum_hessian":[3.0334808E2,2.9042334E2,1.292476E1,2.6511984E2,2.530348E1,1.0364441E1,2.5603187E0,2.6126337E2,3.8564994E0,1.9816984E1,5.4864964E0,1.0452287E0,9.319212E0,1.4144841E0,1.1458344E0,2.5795773E2,3.3056216E0,2.7471986E0,1.1093009E0,1.6973616E1,2.8433676E0,2.0481272E0,3.4383695E0],"tree_param":{"num_deleted":"0","num_feature":"31654","num_nodes":"23","size_leaf_vector":"0"}},{"base_weights":[5.8026933E-3,2.1683354E-2,-8.2874775E-1,4.7040407E-2,-5.084621E-1,7.682351E-2,-5.000086E-1,-7.5464356E-1,6.809484E-1,1.0560585E-1,-6.37413E-1,-7.388592E-1,1.0479244E0,-9.132206E-1,4.0355244E-1],"categories":[],"categories_nodes":[],"categories_segments":[],"categories_sizes":[],"default_left":[1,1,0,1,1,1,1,1,0,0,0,0,0,0,0],"id":48,"left_children":[1,3,-1,5,7,9,11,13,-1,-1,-1,-1,-1,-1,-1],"loss_changes":[4.048278E0,4.0486803E0,0E0,4.7086673E0,4.5403852E0,5.6735573E0,6.2954774E0,2.5481472E0,0E0,0E0,0E0,0E0,0E0,0E0,0E0],"parents":[2147483647,0,0,1,1,3,3,4,4,5,5,6,6,7,7],"right_children":[2,4,-1,6,8,10,12,14,-1,-1,-1,-1,-1,-1,-1],"split_conditions":[-9.536743E-7,-9.536743E-7,-8.2874775E-2,-9.536743E-7,-9.536743E-7,-9.536743E-7,-9.536743E-7,-9.536743E-7,6.809484E-2,1.0560585E-2,-6.3741304E-2,-7.388592E-2,1.0479244E-1,-9.132206E-2,4.0355247E-2],"split_indices":[6,31246,0,25601,3246,7,11702,23373,0,0,0,0,0,0,0],"split_type":[0,0,0,0,0,0,0,0,0,0,0,0,0,0,0],"sum_hessian":[3.0310046E2,2.983963E2,4.7041655E0,2.8564505E2,1.2751241E1,2.7171176E2,1.3933293E1,1.0867452E1,1.8837892E0,2.6200558E2,9.706171E0,1.2523553E1,1.4097409E0,9.744742E0,1.122709E0],"tree_param":{"num_deleted":"0","num_feature":"31654","num_nodes":"15","size_leaf_vector":"0"}},{"base_weights":[4.500052E-3,2.1725519E-2,-7.353222E-1,5.456937E-2,-4.2043388E-1,-8.4570515E-1,-4.0490776E-2,-1.1584606E-2,3.2818952E-1,9.675286E-2,-8.0863047E-1,-3.286263E-2,1.7020872E0,1.5462279E0,1.3788238E-1,-3.249506E-1,9.174284E-1,-9.4699335E-1,1.6162544E-1],"categories":[],"categories_nodes":[],"categories_segments":[],"categories_sizes":[],"default_left":[1,1,1,1,1,0,0,1,1,1,1,0,0,0,0,0,0,0,0],"id":49,"left_children":[1,3,5,7,9,-1,-1,11,13,15,17,-1,-1,-1,-1,-1,-1,-1,-1],"loss_changes":[3.8945813E0,4.3563585E0,4.9909472E-1,5.0476894E0,4.2437205E0,0E0,0E0,8.273506E0,1.2370722E1,3.6858943E0,1.7584662E0,0E0,0E0,0E0,0E0,0E0,0E0,0E0,0E0],"parents":[2147483647,0,0,1,1,2,2,3,3,4,4,7,7,8,8,9,9,10,10],"right_children":[2,4,6,8,10,-1,-1,12,14,16,18,-1,-1,-1,-1,-1,-1,-1,-1],"split_conditions":[-9.536743E-7,-9.536743E-7,-9.536743E-7,-9.536743E-7,-9.536743E-7,-8.457052E-2,-4.0490776E-3,-9.536743E-7,-9.536743E-7,-9.536743E-7,-9.536743E-7,-3.286263E-3,1.7020872E-1,1.546228E-1,1.3788238E-2,-3.2495063E-2,9.1742836E-2,-9.469934E-2,1.6162544E-2],"split_indices":[11171,23410,3402,6574,6621,0,0,20220,12847,12759,12871,0,0,0,0,0,0,0,0],"split_type":[0,0,0,0,0,0,0,0,0,0,0,0,0,0,0,0,0,0,0],"sum_hessian":[3.033528E2,2.9739902E2,5.9537816E0,2.776515E2,1.9747526E1,4.9502354E0,1.0035461E0,2.24364E2,5.3287502E1,8.788947E0,1.095858E1,2.2258112E2,1.7828835E0,6.237867E0,4.7049637E1,6.2047076E0,2.584239E0,9.611861E0,1.3467189E0],"tree_param":{"num_deleted":"0","num_feature":"31654","num_nodes":"19","size_leaf_vector":"0"}},{"base_weights":[4.2707985E-3,4.1464433E-2,-3.382357E-1,2.1877358E-2,1.0106888E0,-5.4878086E-1,7.567138E-1,6.00544E-2,-4.7009465E-1,2.1737928E0,-4.0562207E-1,-6.7800784E-1,1.1766944E0,1.3580632E0,-5.876074E-1,1.0627733E-2,6.7988944E-1,-6.412993E-1,1.0785481E0,-3.1731024E-2,3.3136759E0,-5.748481E-1,-1.3098329E-2,-7.786244E-1,7.156457E-1,1.1828239E-1,2.054994E0],"categories":[],"categories_nodes":[],"categories_segments":[],"categories_sizes":[],"default_left":[1,1,1,1,0,1,1,1,1,1,1,1,0,1,0,0,0,0,0,0,0,0,0,0,0,0,0],"id":50,"left_children":[1,3,5,7,9,11,13,15,17,19,21,23,-1,25,-1,-1,-1,-1,-1,-1,-1,-1,-1,-1,-1,-1,-1],"loss_changes":[3.8894265E0,5.2043624E0,7.310284E0,5.1157994E0,9.828846E0,6.520464E0,5.0372143E0,7.7209463E0,5.8934693E0,7.99796E0,2.1113074E-1,3.994255E0,0E0,3.1484451E0,0E0,0E0,0E0,0E0,0E0,0E0,0E0,0E0,0E0,0E0,0E0,0E0,0E0],"parents":[2147483647,0,0,1,1,2,2,3,3,4,4,5,5,6,6,7,7,8,8,9,9,10,10,11,11,13,13],"right_children":[2,4,6,8,10,12,14,16,18,20,22,24,-1,26,-1,-1,-1,-1,-1,-1,-1,-1,-1,-1,-1,-1,-1],"split_conditions":[-9.536743E-7,-9.536743E-7,-9.536743E-7,-9.536743E-7,7.21831E-2,-9.536743E-7,-9.536743E-7,-9.536743E-7,-9.536743E-7,3.4153005E-3,-9.536743E-7,-9.536743E-7,1.1766944E-1,-9.536743E-7,-5.876074E-2,1.0627733E-3,6.798895E-2,-6.412993E-2,1.07854806E-1,-3.1731024E-3,3.3136758E-1,-5.7484813E-2,-1.3098329E-3,-7.786244E-2,7.156457E-2,1.1828239E-2,2.0549941E-1],"split_indices":[3547,21720,6665,23493,5669,19652,26440,12740,4211,25,2781,595,0,26608,0,0,0,0,0,0,0,0,0,0,0,0,0],"split_type":[0,0,0,0,0,0,0,0,0,0,0,0,0,0,0,0,0,0,0,0,0,0,0,0,0,0,0],"sum_hessian":[3.0321405E2,2.7430548E2,2.8908579E1,2.6987418E2,4.4313207E0,2.4664675E1,4.243903E0,2.5125473E2,1.8619442E1,2.1394951E0,2.2918258E0,2.351092E1,1.1537558E0,2.925175E0,1.3187281E0,2.3364096E2,1.761377E1,1.7293514E1,1.3259264E0,1.0602375E0,1.0792575E0,1.2768526E0,1.0149732E0,2.2339405E1,1.171515E0,1.4735587E0,1.4516163E0],"tree_param":{"num_deleted":"0","num_feature":"31654","num_nodes":"27","size_leaf_vector":"0"}},{"base_weights":[5.2370494E-3,-6.3811378E-3,1.0785317E0,1.1338008E-2,-8.5841966E-1,2.0357878E0,-5.245225E-1,-3.1838345E-3,9.574201E-1,2.8966846E-2,-5.542063E-1,1.38881E0,-2.3118325E-1],"categories":[],"categories_nodes":[],"categories_segments":[],"categories_sizes":[],"default_left":[1,1,0,1,0,0,0,1,1,0,0,0,0],"id":51,"left_children":[1,3,5,7,-1,-1,-1,9,11,-1,-1,-1,-1],"loss_changes":[3.792972E0,4.559557E0,6.0662994E0,4.0726657E0,0E0,0E0,0E0,5.202002E0,2.6188512E0,0E0,0E0,0E0,0E0],"parents":[2147483647,0,0,1,1,2,2,3,3,7,7,8,8],"right_children":[2,4,6,8,-1,-1,-1,10,12,-1,-1,-1,-1],"split_conditions":[-9.536743E-7,-9.536743E-7,3.4351144E-2,-9.536743E-7,-8.584197E-2,2.0357879E-1,-5.2452248E-2,-9.536743E-7,-9.536743E-7,2.8966847E-3,-5.5420633E-2,1.3888101E-1,-2.3118325E-2],"split_indices":[27637,26491,5671,28020,0,0,0,28932,3474,0,0,0,0],"split_type":[0,0,0,0,0,0,0,0,0,0,0,0,0],"sum_hessian":[3.026222E2,3.0036487E2,2.2573314E0,2.9521228E2,5.1525946E0,1.2443379E0,1.0129935E0,2.9173102E2,3.4812763E0,2.765429E2,1.5188104E1,2.430658E0,1.0506182E0],"tree_param":{"num_deleted":"0","num_feature":"31654","num_nodes":"13","size_leaf_vector":"0"}},{"base_weights":[4.8869355E-3,-9.585408E-3,8.4903777E-1,9.724962E-3,-7.551439E-1,-5.442789E-1,1.352149E0,-9.890173E-3,7.564432E-1,-6.8813255E-3,-8.681225E-1,-5.387503E-2,1.894538E0,1.7865883E-2,-7.1072036E-1,-6.2603366E-1,1.242899E0],"categories":[],"categories_nodes":[],"categories_segments":[],"categories_sizes":[],"default_left":[1,1,0,1,0,0,1,1,1,0,0,0,0,0,0,0,0],"id":52,"left_children":[1,3,5,7,9,-1,11,13,15,-1,-1,-1,-1,-1,-1,-1,-1],"loss_changes":[3.7168324E0,4.318446E0,4.330614E0,4.297166E0,6.3420343E-1,0E0,3.1941142E0,5.583099E0,5.8281856E0,0E0,0E0,0E0,0E0,0E0,0E0,0E0,0E0],"parents":[2147483647,0,0,1,1,2,2,3,3,4,4,6,6,7,7,8,8],"right_children":[2,4,6,8,10,-1,12,14,16,-1,-1,-1,-1,-1,-1,-1,-1],"split_conditions":[-9.536743E-7,-9.536743E-7,3.0632412E-2,-9.536743E-7,2.1628499E-2,-5.4427892E-2,6.147541E-3,-9.536743E-7,-9.536743E-7,-6.8813254E-4,-8.681225E-2,-5.387503E-3,1.8945381E-1,1.7865883E-3,-7.1072035E-2,-6.260337E-2,1.2428989E-1],"split_indices":[7029,13331,42,28511,5671,0,25,24892,26276,0,0,0,0,0,0,0,0],"split_type":[0,0,0,0,0,0,0,0,0,0,0,0,0,0,0,0,0],"sum_hessian":[3.025723E2,2.984443E2,4.127963E0,2.9187164E2,6.572678E0,1.0734166E0,3.0545464E0,2.8536237E2,6.509273E0,1.0013832E0,5.571295E0,1.1010326E0,1.9535137E0,2.7542865E2,9.933717E0,1.6195849E0,4.889688E0],"tree_param":{"num_deleted":"0","num_feature":"31654","num_nodes":"17","size_leaf_vector":"0"}},{"base_weights":[4.1727377E-3,-6.2171416E-3,1.1765655E0,1.3267671E-2,-6.7706597E-1,-1.8211253E-1,9.419262E-2,-8.9047974E-1,2.7058402E-1,-2.8466424E-1,1.1506026E0,1.6217633E-1,-4.7200516E-1],"categories":[],"categories_nodes":[],"categories_segments":[],"categories_sizes":[],"default_left":[1,1,0,1,1,1,1,0,0,0,0,0,0],"id":53,"left_children":[1,3,-1,5,7,9,11,-1,-1,-1,-1,-1,-1],"loss_changes":[3.7056854E0,3.9558177E0,0E0,4.672006E0,1.9684334E0,1.2158772E1,8.115147E0,0E0,0E0,0E0,0E0,0E0,0E0],"parents":[2147483647,0,0,1,1,3,3,4,4,5,5,6,6],"right_children":[2,4,-1,6,8,10,12,-1,-1,-1,-1,-1,-1],"split_conditions":[-9.536743E-7,-9.536743E-7,1.1765655E-1,-9.536743E-7,-9.536743E-7,-9.536743E-7,-9.536743E-7,-8.9047976E-2,2.7058402E-2,-2.8466424E-2,1.1506026E-1,1.6217632E-2,-4.7200516E-2],"split_indices":[21785,1910,0,28005,2200,24487,12867,0,0,0,0,0,0],"split_type":[0,0,0,0,0,0,0,0,0,0,0,0,0],"sum_hessian":[3.0261746E2,3.0094516E2,1.6723133E0,2.9340347E2,7.5416846E0,8.556653E1,2.0783694E2,6.204696E0,1.3369887E0,8.01829E1,5.3836274E0,1.8619408E2,2.1642866E1],"tree_param":{"num_deleted":"0","num_feature":"31654","num_nodes":"13","size_leaf_vector":"0"}},{"base_weights":[3.6518374E-3,-6.8695005E-3,1.1724535E0,-1.9627353E-2,9.545401E-1,1.8539022E-1,-8.3947234E-2,1.708517E0,-5.311367E-1,-2.334931E-1,4.6360576E-1,-1.1015558E-1,1.1460636E0],"categories":[],"categories_nodes":[],"categories_segments":[],"categories_sizes":[],"default_left":[1,1,0,0,1,1,1,0,0,0,0,0,0],"id":54,"left_children":[1,3,-1,5,7,9,11,-1,-1,-1,-1,-1,-1],"loss_changes":[3.7410731E0,3.7210655E0,0E0,3.9567451E0,5.3581057E0,8.462461E0,7.482302E0,0E0,0E0,0E0,0E0,0E0,0E0],"parents":[2147483647,0,0,1,1,3,3,4,4,5,5,6,6],"right_children":[2,4,-1,6,8,10,12,-1,-1,-1,-1,-1,-1],"split_conditions":[-9.536743E-7,-9.536743E-7,1.17245354E-1,2.6595745E-2,-9.536743E-7,-9.536743E-7,-9.536743E-7,1.708517E-1,-5.311367E-2,-2.3349311E-2,4.636058E-2,-1.1015559E-2,1.1460636E-1],"split_indices":[11863,7124,0,28,11710,11750,12555,0,0,0,0,0,0],"split_type":[0,0,0,0,0,0,0,0,0,0,0,0,0],"sum_hessian":[3.0256268E2,3.0084863E2,1.7140613E0,2.9787543E2,2.9732056E0,7.068546E1,2.2718996E2,1.8727816E0,1.1004239E0,2.8275066E1,4.2410393E1,2.2334157E2,3.8483875E0],"tree_param":{"num_deleted":"0","num_feature":"31654","num_nodes":"13","size_leaf_vector":"0"}},{"base_weights":[4.0872484E-3,3.0858114E-2,-4.5228538E-1,-2.2008107E-3,5.0950044E-1,-7.1453905E-1,5.2650744E-1,-3.534276E-2,5.9788483E-1,9.667815E-1,-3.2800403E-1,-9.55881E-1,4.2602345E-1,1.7425559E0,-4.8239204E-1,3.4130648E-2,-3.679704E-1,1.6993173E0,5.9784792E-2,3.6374885E-1,2.132782E0,-7.2878706E-1,1.0789347E0,7.8897935E-1,-1.4316261E-1],"categories":[],"categories_nodes":[],"categories_segments":[],"categories_sizes":[],"default_left":[1,1,1,0,0,1,0,1,1,1,1,0,1,0,0,0,0,0,0,0,0,0,0,0,0],"id":55,"left_children":[1,3,5,7,9,11,13,15,17,19,21,-1,23,-1,-1,-1,-1,-1,-1,-1,-1,-1,-1,-1,-1],"loss_changes":[3.7193916E0,4.549088E0,4.706363E0,5.3878493E0,7.430236E0,4.186237E0,5.9204125E0,5.9438396E0,8.302088E0,7.8496494E0,4.9061394E0,0E0,7.511763E-1,0E0,0E0,0E0,0E0,0E0,0E0,0E0,0E0,0E0,0E0,0E0,0E0],"parents":[2147483647,0,0,1,1,2,2,3,3,4,4,5,5,6,6,7,7,8,8,9,9,10,10,12,12],"right_children":[2,4,6,8,10,12,14,16,18,20,22,-1,24,-1,-1,-1,-1,-1,-1,-1,-1,-1,-1,-1,-1],"split_conditions":[-9.536743E-7,-9.536743E-7,-9.536743E-7,3.2570422E-1,2.6639344E-2,-9.536743E-7,9.683099E-2,-9.536743E-7,-9.536743E-7,-9.536743E-7,-9.536743E-7,-9.55881E-2,-9.536743E-7,1.742556E-1,-4.8239205E-2,3.4130649E-3,-3.6797043E-2,1.6993174E-1,5.9784795E-3,3.6374886E-2,2.132782E-1,-7.287871E-2,1.0789347E-1,7.889794E-2,-1.4316261E-2],"split_indices":[9480,12010,17919,5669,25,21257,5669,26068,26472,11492,9862,0,26234,0,0,0,0,0,0,0,0,0,0,0,0],"split_type":[0,0,0,0,0,0,0,0,0,0,0,0,0,0,0,0,0,0,0,0,0,0,0,0,0],"sum_hessian":[3.0228937E2,2.8642032E2,1.58690605E1,2.6884695E2,1.757335E1,1.2728593E1,3.1404672E0,2.5566786E2,1.31791E1,1.1267103E1,6.3062468E0,1.0639258E1,2.089335E0,1.0942996E0,2.0461676E0,2.1223694E2,4.3430923E1,3.617163E0,9.561936E0,8.291081E0,2.9760225E0,5.2832546E0,1.022992E0,1.0399994E0,1.0493357E0],"tree_param":{"num_deleted":"0","num_feature":"31654","num_nodes":"25","size_leaf_vector":"0"}},{"base_weights":[4.7444818E-3,2.9269695E-2,-4.84835E-1,1.55511275E-2,1.4499363E0,-6.652809E-1,8.0962485E-1,3.780344E-2,-6.9103783E-1,-7.8834075E-1,4.1158125E-1,1.5141582E-2,7.0115924E-1,-8.862593E-1,4.1748106E-1,-9.236174E-1,-2.2316551E-1],"categories":[],"categories_nodes":[],"categories_segments":[],"categories_sizes":[],"default_left":[1,1,1,1,0,1,0,1,1,1,0,0,0,0,0,0,0],"id":56,"left_children":[1,3,5,7,-1,9,-1,11,13,15,-1,-1,-1,-1,-1,-1,-1],"loss_changes":[3.6489978E0,5.614299E0,3.9251263E0,4.546073E0,0E0,2.083437E0,0E0,4.1931877E0,2.2805686E0,7.3084736E-1,0E0,0E0,0E0,0E0,0E0,0E0,0E0],"parents":[2147483647,0,0,1,1,2,2,3,3,5,5,7,7,8,8,9,9],"right_children":[2,4,6,8,-1,10,-1,12,14,16,-1,-1,-1,-1,-1,-1,-1],"split_conditions":[-9.536743E-7,-9.536743E-7,-9.536743E-7,-9.536743E-7,1.4499363E-1,-9.536743E-7,8.096249E-2,-9.536743E-7,4.713115E-2,-9.536743E-7,4.1158125E-2,1.5141582E-3,7.0115924E-2,-8.862593E-2,4.1748106E-2,-9.236174E-2,-2.231655E-2],"split_indices":[11594,27637,26329,28074,0,1989,0,11945,25,4742,0,0,0,0,0,0,0],"split_type":[0,0,0,0,0,0,0,0,0,0,0,0,0,0,0,0,0],"sum_hessian":[3.0172293E2,2.882247E2,1.349824E1,2.8646936E2,1.755325E0,1.2273401E1,1.2248397E0,2.7864075E2,7.828619E0,1.1255134E1,1.0182673E0,2.7042517E2,8.215561E0,6.8268433E0,1.0017754E0,8.569726E0,2.685408E0],"tree_param":{"num_deleted":"0","num_feature":"31654","num_nodes":"17","size_leaf_vector":"0"}},{"base_weights":[4.548204E-3,1.9110328E-2,-8.1566185E-1,1.0850693E-1,-1.2606348E-1,5.873511E-2,1.1024172E0,-1.6379255E-1,1.4288744E0,1.4149144E-2,1.236839E0,-5.976315E-2,2.8044431E0,-2.0051922E-1,1.1830597E0],"categories":[],"categories_nodes":[],"categories_segments":[],"categories_sizes":[],"default_left":[1,1,0,1,1,1,1,1,0,0,0,0,0,0,0],"id":57,"left_children":[1,3,-1,5,7,9,11,13,-1,-1,-1,-1,-1,-1,-1],"loss_changes":[3.6293218E0,3.8844538E0,0E0,9.093174E0,6.929634E0,9.298324E0,1.751938E1,5.793359E0,0E0,0E0,0E0,0E0,0E0,0E0,0E0],"parents":[2147483647,0,0,1,1,3,3,4,4,5,5,6,6,7,7],"right_children":[2,4,-1,6,8,10,12,14,-1,-1,-1,-1,-1,-1,-1],"split_conditions":[-9.536743E-7,3.6895674E-2,-8.1566185E-2,-9.536743E-7,-9.536743E-7,-9.536743E-7,-9.536743E-7,-9.536743E-7,1.4288744E-1,1.4149145E-3,1.2368391E-1,-5.976315E-3,2.8044432E-1,-2.0051923E-2,1.1830597E-1],"split_indices":[6,5671,0,27414,2220,5256,22702,13783,0,0,0,0,0,0,0],"split_type":[0,0,0,0,0,0,0,0,0,0,0,0,0,0,0],"sum_hessian":[3.0155643E2,2.972556E2,4.300817E0,1.841255E2,1.131301E2,1.763534E2,7.772114E0,1.113236E2,1.8064963E0,1.7089769E2,5.4557033E0,5.191875E0,2.5802388E0,1.0919708E2,2.126523E0],"tree_param":{"num_deleted":"0","num_feature":"31654","num_nodes":"15","size_leaf_vector":"0"}},{"base_weights":[5.3172885E-3,-1.0131479E-2,7.875964E-1,5.514459E-2,-2.2562052E-1,2.2004473E0,-1.6937162E-1,-1.0642341E-1,2.261802E-1,-2.786592E-1,1.3747674E0,-7.2109836E-1,7.9214686E-1,-1.8737689E-1,6.9386786E-1,6.0489464E-1,5.9936166E-2,-3.6060753E-1,9.1838866E-1],"categories":[],"categories_nodes":[],"categories_segments":[],"categories_sizes":[],"default_left":[1,1,1,1,1,0,1,1,1,1,0,0,0,0,0,0,0,0,0],"id":58,"left_children":[1,3,5,7,9,-1,11,13,15,17,-1,-1,-1,-1,-1,-1,-1,-1,-1],"loss_changes":[3.6601663E0,4.1948657E0,8.302667E0,6.3525505E0,6.2675953E0,0E0,2.9187832E0,7.803653E0,6.987853E0,6.9951344E0,0E0,0E0,0E0,0E0,0E0,0E0,0E0,0E0,0E0],"parents":[2147483647,0,0,1,1,2,2,3,3,4,4,6,6,7,7,8,8,9,9],"right_children":[2,4,6,8,10,-1,12,14,16,18,-1,-1,-1,-1,-1,-1,-1,-1,-1],"split_conditions":[-9.536743E-7,-9.536743E-7,-9.536743E-7,-9.536743E-7,-9.536743E-7,2.2004473E-1,-9.536743E-7,-9.536743E-7,2.9929576E-2,-9.536743E-7,1.3747674E-1,-7.210984E-2,7.9214685E-2,-1.8737689E-2,6.938679E-2,6.0489465E-2,5.993617E-3,-3.6060754E-2,9.183887E-2],"split_indices":[25300,3474,26135,21674,22301,0,7125,23634,5669,11706,0,0,0,0,0,0,0,0,0],"split_type":[0,0,0,0,0,0,0,0,0,0,0,0,0,0,0,0,0,0,0],"sum_hessian":[3.012021E2,2.9633694E2,4.8651342E0,2.2801163E2,6.832532E1,1.4398983E0,3.425236E0,1.1744527E2,1.1056636E2,6.693296E1,1.3923544E0,2.3352776E0,1.0899582E0,1.07351944E2,1.0093324E1,3.2924244E1,7.764211E1,6.3298393E1,3.634572E0],"tree_param":{"num_deleted":"0","num_feature":"31654","num_nodes":"19","size_leaf_vector":"0"}},{"base_weights":[5.9123035E-3,3.341963E-2,-4.2842245E-1,8.677079E-3,8.11031E-1,-6.281939E-1,1.0652657E0,-3.650818E-2,4.7277063E-1,2.0506175E0,-1.300634E-1,-8.1364244E-1,4.2865628E-1,1.3615896E-2,-5.875562E-1,8.530606E-1,-2.276112E-1,3.0226886E0,2.0009431E-1,-6.1861855E-1,9.9045897E-1,8.215389E-2,-9.4432145E-1,-5.466489E-1,1.227214E0],"categories":[],"categories_nodes":[],"categories_segments":[],"categories_sizes":[],"default_left":[1,1,1,1,0,1,0,1,1,0,1,1,0,0,0,0,0,0,0,0,0,0,0,0,0],"id":59,"left_children":[1,3,5,7,9,11,-1,13,15,17,19,21,23,-1,-1,-1,-1,-1,-1,-1,-1,-1,-1,-1,-1],"loss_changes":[3.6203578E0,5.4721065E0,6.0549974E0,5.826137E0,1.0498674E1,3.592235E0,0E0,7.005934E0,6.759332E0,6.3114567E0,3.8569062E0,1.7660389E0,3.1050038E0,0E0,0E0,0E0,0E0,0E0,0E0,0E0,0E0,0E0,0E0,0E0,0E0],"parents":[2147483647,0,0,1,1,2,2,3,3,4,4,5,5,7,7,8,8,9,9,10,10,11,11,12,12],"right_children":[2,4,6,8,10,12,-1,14,16,18,20,22,24,-1,-1,-1,-1,-1,-1,-1,-1,-1,-1,-1,-1],"split_conditions":[-9.536743E-7,-9.536743E-7,-9.536743E-7,-9.536743E-7,1.1612022E-2,-9.536743E-7,1.0652657E-1,-9.536743E-7,-9.536743E-7,3.6895674E-2,-9.536743E-7,-9.536743E-7,7.760814E-2,1.3615896E-3,-5.8755618E-2,8.530606E-2,-2.276112E-2,3.0226886E-1,2.0009432E-2,-6.1861854E-2,9.9045895E-2,8.215389E-3,-9.4432145E-2,-5.466489E-2,1.227214E-1],"split_indices":[26723,25897,22116,26500,25,14,0,3547,19641,5671,6707,26588,5671,0,0,0,0,0,0,0,0,0,0,0,0],"split_type":[0,0,0,0,0,0,0,0,0,0,0,0,0,0,0,0,0,0,0,0,0,0,0,0,0],"sum_hessian":[3.0082663E2,2.8377747E2,1.7049164E1,2.7600647E2,7.770997E0,1.5549015E1,1.5001495E0,2.5235765E2,2.3648811E1,2.844854E0,4.926143E0,1.3423654E1,2.1253614E0,2.3221074E2,2.0146914E1,1.5185478E1,8.463332E0,1.4498376E0,1.3950167E0,3.742366E0,1.1837769E0,1.756219E0,1.1667435E1,1.0988067E0,1.0265546E0],"tree_param":{"num_deleted":"0","num_feature":"31654","num_nodes":"25","size_leaf_vector":"0"}},{"base_weights":[6.1268657E-3,2.3841782E-2,-6.5168965E-1,5.837573E-2,-3.409919E-1,-8.6052287E-1,3.8737652E-1,4.0263563E-2,1.0944638E0,-4.5769656E-1,9.1822046E-1,6.8334915E-2,-6.460285E-1,-5.569948E-1,1.8134195E0,-5.798102E-1,9.135968E-1],"categories":[],"categories_nodes":[],"categories_segments":[],"categories_sizes":[],"default_left":[1,1,1,1,1,0,0,1,0,1,0,0,0,0,0,0,0],"id":60,"left_children":[1,3,5,7,9,-1,-1,11,13,15,-1,-1,-1,-1,-1,-1,-1],"loss_changes":[3.5290067E0,3.7311316E0,2.0566547E0,5.0216527E0,4.1848927E0,0E0,0E0,5.175313E0,6.471415E0,4.5673347E0,0E0,0E0,0E0,0E0,0E0,0E0,0E0],"parents":[2147483647,0,0,1,1,2,2,3,3,4,4,7,7,8,8,9,9],"right_children":[2,4,6,8,10,-1,-1,12,14,16,-1,-1,-1,-1,-1,-1,-1],"split_conditions":[-9.536743E-7,-9.536743E-7,-9.536743E-7,-9.536743E-7,-9.536743E-7,-8.605229E-2,3.873765E-2,-9.536743E-7,2.9220778E-2,-9.536743E-7,9.182205E-2,6.8334914E-3,-6.460285E-2,-5.569948E-2,1.8134195E-1,-5.798102E-2,9.135968E-2],"split_indices":[12114,11542,21258,25264,26462,0,0,21250,31,11838,0,0,0,0,0,0,0],"split_type":[0,0,0,0,0,0,0,0,0,0,0,0,0,0,0,0,0],"sum_hessian":[3.0050345E2,2.9356165E2,6.941822E0,2.6894424E2,2.461738E1,5.9231987E0,1.0186236E0,2.6534454E2,3.5997066E0,2.3111877E1,1.5055028E0,2.5578271E2,9.561831E0,1.1601309E0,2.439576E0,2.1752039E1,1.359839E0],"tree_param":{"num_deleted":"0","num_feature":"31654","num_nodes":"17","size_leaf_vector":"0"}},{"base_weights":[5.585666E-3,3.883655E-2,-3.3972466E-1,7.719745E-2,-4.195166E-1,-5.0037557E-1,7.0913684E-1,1.028387E-1,-8.632578E-1,-6.358672E-1,9.7634614E-1,-6.099583E-1,9.622562E-1,-3.317834E-1,1.7599798E0,8.375865E-2,1.0809464E0,-7.93026E-1,4.7503486E-1,1.9202199E0,-5.309149E-1,-7.433538E-1,7.957889E-2],"categories":[],"categories_nodes":[],"categories_segments":[],"categories_sizes":[],"default_left":[1,1,1,1,1,1,1,1,0,1,1,1,0,0,0,0,0,0,0,0,0,0,0],"id":61,"left_children":[1,3,5,7,9,11,13,15,-1,17,19,21,-1,-1,-1,-1,-1,-1,-1,-1,-1,-1,-1],"loss_changes":[3.4752698E0,4.884165E0,4.834766E0,6.2493525E0,7.103451E0,4.376252E0,4.8992186E0,4.567311E0,0E0,3.7272215E0,5.678733E0,2.1384974E0,0E0,0E0,0E0,0E0,0E0,0E0,0E0,0E0,0E0,0E0,0E0],"parents":[2147483647,0,0,1,1,2,2,3,3,4,4,5,5,6,6,7,7,9,9,10,10,11,11],"right_children":[2,4,6,8,10,12,14,16,-1,18,20,22,-1,-1,-1,-1,-1,-1,-1,-1,-1,-1,-1],"split_conditions":[-9.536743E-7,